641 300
</s> 0.001334 0.001473 -0.001277 -0.001093 0.000456 0.001007 0.000314 0.000070 -0.001201 0.000739 -0.001452 0.000417 -0.000250 -0.000319 -0.001105 -0.000627 0.000860 0.001008 0.000990 0.000532 0.000515 -0.001268 -0.001365 0.001657 0.001267 0.001030 -0.000201 0.001339 -0.000165 0.000245 -0.000050 -0.000994 0.000437 -0.000446 -0.001275 0.001585 0.001460 -0.000365 -0.000075 0.000170 -0.001213 -0.001336 0.001518 0.000021 -0.000861 -0.001014 -0.001025 0.000566 0.000067 0.000444 -0.001405 -0.001269 -0.000043 0.000381 0.000850 -0.001057 0.001360 0.000309 0.000373 -0.000203 0.000995 -0.000763 -0.000699 0.000719 -0.000251 0.000344 0.000602 -0.001363 -0.000661 0.000971 0.001411 0.001311 -0.001016 -0.000703 -0.000303 0.000667 -0.001263 0.000999 0.000929 -0.000533 -0.000517 -0.000746 0.001410 0.001304 -0.000393 0.001405 0.001607 0.000605 0.001661 -0.001037 -0.000511 -0.000702 -0.000969 0.000938 0.000526 0.000142 -0.000731 0.000508 0.001020 0.000065 0.000760 -0.001651 0.001438 0.000160 -0.000610 -0.000694 -0.000249 -0.000978 -0.001457 -0.000946 0.001426 -0.000590 -0.000893 0.000772 -0.000568 0.001586 -0.000535 -0.001530 0.000905 -0.000025 -0.001163 0.000325 0.000481 -0.000160 0.000608 -0.001319 0.000294 0.000606 -0.001003 0.000047 -0.000020 -0.000800 -0.000944 -0.001565 0.000008 0.000051 0.000003 -0.001311 -0.001654 -0.001582 -0.001442 -0.000182 0.000464 0.000395 -0.001061 0.001666 -0.000670 -0.000425 -0.000468 0.001578 -0.001255 0.000387 -0.000445 0.001063 0.000014 0.001423 -0.000940 -0.000868 -0.001397 -0.001222 -0.001066 -0.001038 0.000815 -0.000622 0.000893 0.001230 0.000452 0.000984 0.000825 0.000780 -0.001184 -0.001144 -0.001219 -0.000044 0.001377 -0.000912 -0.001020 -0.001399 0.001102 -0.001393 -0.000193 0.000726 -0.001539 -0.001493 0.000481 0.001175 0.001421 0.000715 0.001054 -0.001043 -0.001213 0.001325 -0.000922 0.000584 0.000191 0.000597 -0.000394 0.000066 -0.000562 -0.000376 -0.001478 -0.001087 0.001162 0.000335 -0.000788 -0.000531 0.000832 -0.001178 -0.000771 0.001578 0.001416 -0.001320 0.000290 -0.000750 0.000051 0.001002 0.001615 0.000662 0.001371 0.001049 -0.000077 0.001492 0.000845 0.001580 -0.000568 0.001582 0.001443 -0.000476 -0.001473 0.001611 0.000299 -0.000693 -0.000239 -0.000245 -0.001284 -0.000477 -0.000148 -0.001642 -0.001172 -0.000401 -0.000314 0.000597 0.000272 -0.000205 0.000982 0.000482 0.000183 0.001206 -0.000375 -0.000476 -0.000138 -0.000909 -0.001000 0.000067 0.001446 -0.000456 -0.000007 -0.001378 0.001236 -0.000507 0.000989 -0.000803 -0.000298 0.000031 0.001208 -0.000029 0.001478 -0.000248 0.000700 -0.000046 -0.001301 0.001417 0.000352 -0.001010 0.001003 -0.001382 -0.001451 0.001089 -0.001144 -0.000883 0.001176 0.001095 0.000228 0.001508 0.001619 0.001352 0.000588 -0.001450 0.000763 -0.001631 -0.000429 0.000504 0.000327 -0.000508 0.000979 -0.001536 -0.000470 -0.000437 -0.000552 0.001024 
yang -0.253668 -0.152968 0.035253 -0.157092 -0.004870 -0.144493 0.032127 -0.192988 -0.450215 -0.030981 0.264949 0.152142 -0.194195 -0.228065 -0.165319 0.116726 0.133619 0.085207 0.074113 -0.254062 0.110242 0.029845 -0.111085 -0.151369 0.364175 -0.118651 0.381318 0.046044 -0.073504 -0.001839 0.079045 0.049720 0.034355 -0.195124 0.182016 -0.165648 -0.059991 -0.031608 0.232739 -0.193442 0.019872 0.098876 0.152253 -0.031096 -0.099741 -0.089360 -0.033554 0.207707 -0.214361 -0.188584 -0.172869 0.254725 -0.203709 -0.048425 0.093921 -0.017103 -0.191229 0.081801 0.122540 -0.100627 -0.038533 0.164688 -0.138521 -0.104446 0.020068 0.135426 -0.038483 -0.180992 0.347398 0.258087 -0.031707 -0.032197 -0.144428 -0.186556 -0.340750 0.289582 0.076706 0.105627 -0.296128 -0.177658 0.092587 0.283322 0.061184 0.062647 -0.026290 -0.212145 -0.005918 -0.232800 0.264924 0.030920 -0.261523 0.110096 0.198675 -0.188208 0.026196 -0.221458 -0.180828 0.115644 0.190167 0.033048 0.124413 0.018231 -0.155182 0.065210 0.142854 0.091738 -0.163875 0.182163 -0.186056 0.206346 0.198631 0.007902 -0.088485 -0.120086 0.048680 -0.165940 -0.339758 0.084959 0.126477 -0.099412 -0.059901 0.011184 0.266042 -0.347726 -0.044042 -0.070314 -0.170732 -0.117850 0.139404 0.040435 -0.043905 0.117424 -0.051801 0.143169 0.088318 0.196878 -0.366765 0.050878 0.154089 0.122349 -0.419750 0.107605 0.085317 -0.159568 -0.035593 -0.202182 0.051128 0.100734 -0.197990 -0.460816 -0.087483 -0.082047 0.034411 -0.013723 0.098714 -0.303104 -0.051987 0.041035 0.270205 -0.228447 0.147129 -0.077469 -0.052404 -0.006242 0.078993 0.183046 -0.018782 -0.018513 -0.030598 -0.258280 -0.101266 0.227176 0.096693 -0.089305 -0.209818 0.352378 0.080470 -0.194396 0.164909 0.048973 -0.094392 -0.260446 -0.012147 -0.107167 0.071324 0.114969 0.365567 0.184112 0.164673 0.128541 -0.227004 -0.088158 0.125642 -0.287853 -0.195739 0.108644 -0.315575 -0.076716 -0.097387 0.248979 0.155055 -0.164862 0.049176 0.052710 -0.147064 -0.139345 0.140088 -0.021323 0.063442 0.169149 0.086847 -0.059331 -0.015329 -0.221909 -0.073725 -0.159734 0.241223 0.565388 0.163137 0.095911 0.289136 -0.099053 -0.050433 0.041789 -0.093936 0.454449 -0.016094 0.003146 -0.125977 0.316401 -0.092799 0.060304 0.047273 0.238733 -0.076637 0.072534 0.179916 -0.041237 0.086330 -0.103534 0.155405 0.084223 -0.103944 -0.026647 0.093311 0.053347 -0.026443 -0.084649 -0.178560 -0.281695 0.034772 0.157223 0.150026 -0.051722 -0.204356 0.123062 0.040872 -0.091308 0.056594 -0.095360 0.146742 -0.029338 -0.047486 -0.130556 0.064834 0.056139 0.125196 0.073246 0.040355 0.092636 -0.180409 0.116813 0.152144 -0.160209 -0.043315 -0.097013 -0.145536 0.321893 -0.078663 0.060031 -0.146201 -0.066597 -0.165088 0.165239 -0.080179 0.162390 0.151945 -0.033097 0.418687 -0.096701 0.081123 0.093137 0.053398 -0.103835 0.034609 -0.023065 -0.056180 0.212291 0.347563 -0.022585 
pada 0.153250 -0.189582 -0.110994 -0.142134 -0.082475 0.000515 0.127122 -0.363200 -0.309196 0.007157 0.225227 0.384709 -0.211054 -0.097827 -0.043177 -0.031109 0.104377 -0.192925 -0.045279 -0.170441 -0.090417 -0.054272 -0.069292 -0.334679 0.188042 -0.167545 0.066197 0.082430 0.082103 -0.057680 -0.214014 0.007767 -0.085801 -0.154422 0.235632 -0.000805 0.003820 -0.171584 0.186819 -0.140429 -0.025726 0.209401 0.155862 -0.060022 -0.112356 0.111078 -0.213171 0.169620 -0.122314 -0.209711 0.024678 0.261004 -0.231823 0.007195 0.182165 0.166404 -0.202360 0.036357 0.010184 -0.206794 -0.050744 0.068212 -0.139331 -0.160502 0.035204 0.122589 0.015216 -0.295196 0.249055 0.273726 -0.115250 0.037707 0.083742 -0.120785 -0.282059 0.121961 -0.138185 0.071647 -0.257989 -0.082266 -0.149902 0.169972 0.168665 0.151522 0.053594 -0.119816 0.103085 -0.038524 0.016589 -0.020848 -0.179215 0.236709 0.093516 0.031438 0.105549 -0.075286 0.037039 0.115666 0.278215 -0.003413 0.125946 0.293141 0.201263 -0.021376 0.308552 0.168959 -0.211819 0.007288 0.105897 0.156643 0.274514 0.194224 -0.165682 -0.156010 0.081229 0.258724 -0.060850 0.095993 0.024985 -0.293078 -0.234305 0.114553 0.128044 -0.103718 0.106039 0.010438 -0.058620 0.040846 0.348044 0.187810 0.106645 0.041293 -0.080835 0.102182 -0.087912 0.123034 -0.048670 0.062067 0.228502 -0.056660 -0.214979 -0.054541 0.006650 -0.284402 0.106007 0.163186 0.303414 0.247038 -0.324540 -0.370102 -0.005879 0.170093 -0.123315 0.064463 0.044370 -0.182211 0.091792 -0.151765 0.131214 -0.144374 0.021155 -0.060707 -0.073605 0.188621 -0.158931 0.036247 -0.060088 -0.063337 0.106123 -0.011690 0.082446 0.171992 -0.123928 -0.316566 -0.220413 0.041664 -0.117164 -0.108813 0.275604 -0.106373 -0.173265 -0.325418 0.189867 -0.109405 0.072899 0.072340 -0.001140 0.193798 0.002135 -0.058634 -0.051440 -0.200866 0.103078 -0.251643 -0.124196 0.139918 -0.156258 -0.155203 -0.098419 0.023723 0.179469 0.004390 0.190154 -0.164481 0.090924 -0.252270 0.270260 0.053087 -0.059302 0.148320 -0.135510 -0.060947 -0.192202 -0.051396 0.010585 0.033417 0.095426 0.395762 0.294959 0.253974 0.110590 0.049325 -0.089178 -0.029648 -0.030097 0.035887 -0.051605 -0.242415 0.003976 0.350193 -0.109183 0.015639 -0.096157 0.080161 0.175638 0.119872 0.310511 -0.201537 -0.026314 -0.157427 0.248333 0.137145 -0.129533 0.113573 -0.001656 0.335801 -0.117497 -0.356228 0.081566 -0.056951 -0.091297 -0.163282 0.330299 -0.016963 -0.119457 0.027326 0.042411 -0.108372 0.072447 -0.233507 0.023525 -0.078812 0.098204 -0.181859 -0.248195 0.230558 0.012546 0.063757 0.119416 0.256684 -0.136269 0.093505 -0.064298 -0.124941 -0.062830 -0.340293 -0.089009 0.090466 -0.146500 -0.038255 -0.155191 -0.194224 0.086079 -0.087924 -0.104378 0.307454 0.112145 0.162450 0.318849 -0.016853 0.244767 -0.119647 0.218292 -0.096570 0.175716 0.093389 -0.095553 0.204447 0.042685 0.065779 
dan 0.293193 0.031405 0.243176 0.182640 -0.214943 -0.228394 -0.107619 0.097229 0.087747 0.128524 -0.233120 0.078989 -0.169300 -0.001199 -0.075889 -0.167988 0.222388 -0.111010 0.018433 0.037513 -0.061979 -0.096803 0.083341 0.042863 -0.174788 0.059154 -0.003093 0.226952 -0.071653 0.014652 0.139411 0.179464 -0.215745 0.114458 -0.239729 -0.166402 0.154475 -0.047879 0.060996 0.077963 -0.089807 -0.301019 -0.129401 -0.209283 0.054315 -0.160622 0.060888 0.021839 0.136008 0.050862 0.249048 -0.240589 0.143743 0.048005 0.060549 -0.034034 -0.050761 0.355210 -0.019249 -0.017213 -0.220915 0.137493 -0.215567 -0.051723 0.043417 0.022790 -0.116928 -0.073276 -0.172487 -0.104936 0.080450 -0.258487 0.251220 -0.106866 -0.067782 -0.010647 -0.010945 -0.198799 0.003504 0.168948 0.320272 -0.081795 0.066351 0.046734 0.052764 -0.051364 -0.099054 0.275806 0.061804 0.124892 -0.204050 0.222999 0.077933 0.121046 0.151710 0.057301 -0.022907 0.064210 -0.227966 0.014622 -0.001130 -0.097222 -0.225115 -0.343703 -0.166744 0.011594 -0.076275 0.285544 -0.053361 0.135170 0.143104 0.256167 0.063243 0.182503 -0.097602 0.076993 0.128930 -0.007309 0.036937 0.118951 0.319263 0.007009 -0.137975 -0.155752 -0.015366 0.016655 0.080150 -0.137001 0.106292 0.139587 0.018866 -0.114560 -0.236113 0.068416 -0.204589 0.136820 0.320870 0.104344 -0.131105 -0.038916 0.029373 0.567372 0.106679 0.201734 0.108400 0.243223 -0.042721 0.097977 -0.168235 0.010516 -0.194794 -0.143100 -0.021328 -0.180128 0.031164 0.293642 -0.054313 -0.288726 -0.316944 -0.167541 0.312198 -0.208961 0.095004 0.413042 0.202234 -0.130678 -0.248846 -0.087735 -0.090292 -0.253068 0.177644 -0.059597 -0.010903 0.065244 -0.082746 0.132302 -0.141537 -0.091277 -0.160908 -0.051323 -0.017115 -0.036723 -0.042195 0.156362 -0.190117 -0.177206 -0.075813 0.047043 -0.152035 0.250793 0.132123 0.095579 0.336338 0.097558 -0.007744 -0.139257 0.104470 0.134182 0.021368 -0.054380 -0.041289 -0.258642 0.040738 -0.175427 0.174707 0.115133 0.054413 -0.127637 -0.145253 -0.193927 0.035110 0.194018 -0.321315 0.018954 0.169242 0.159328 0.144046 0.079975 0.095112 0.268925 -0.045827 -0.094973 -0.086934 -0.143648 -0.111189 -0.186107 -0.025127 0.081067 0.009551 -0.081848 -0.066066 0.155223 -0.130637 0.147802 0.019330 0.083463 0.037888 -0.084867 -0.216033 -0.131029 -0.191498 -0.082963 -0.029915 0.192177 -0.229805 0.128708 0.076360 0.145811 0.042199 -0.127017 0.107315 -0.067681 0.020861 -0.215793 -0.214396 -0.159671 0.075014 0.216858 0.265718 0.064147 -0.051989 0.126584 -0.183465 -0.154903 0.050685 -0.222198 0.232747 0.053956 0.022574 -0.083822 -0.180365 0.063888 0.119080 0.302467 0.029540 -0.117646 -0.042635 0.195618 0.099047 0.151080 0.252050 0.229758 0.027973 0.165122 -0.012539 0.104497 -0.081779 0.024877 -0.016236 0.053497 -0.054187 -0.347970 -0.084997 0.279444 0.169398 0.092526 -0.194777 0.156602 -0.025172 -0.333414 
kamu -0.246960 -0.213297 0.027804 -0.239548 -0.063777 -0.140314 0.061110 -0.305725 -0.488817 -0.060987 0.304983 0.218559 -0.203090 -0.140045 -0.144186 0.042861 0.074966 -0.045794 0.043770 -0.251320 0.102591 0.035567 -0.115573 -0.148531 0.363786 -0.150950 0.356669 0.040590 -0.070655 -0.017733 0.011617 0.008255 0.034657 -0.154511 0.225855 -0.139537 -0.081644 0.011176 0.159458 -0.160955 0.001244 0.108324 0.133225 -0.065350 -0.108487 -0.030376 -0.085587 0.260341 -0.178939 -0.193869 -0.096013 0.274178 -0.290068 -0.026650 0.148403 0.046422 -0.306421 0.067845 0.131991 -0.089600 -0.028163 0.158067 -0.140157 -0.156922 -0.002688 0.100909 -0.016178 -0.190031 0.358159 0.340581 -0.080453 0.017303 -0.188839 -0.221508 -0.387750 0.348778 0.052876 0.087716 -0.286848 -0.164588 -0.022582 0.316606 0.111208 0.071638 -0.098891 -0.226577 0.039634 -0.179953 0.242696 -0.013832 -0.277773 0.204591 0.244034 -0.055953 0.100820 -0.219189 -0.117253 0.115882 0.330212 0.019933 0.193678 0.106944 -0.074988 0.034632 0.231487 0.091351 -0.162763 0.155109 -0.096072 0.225113 0.304649 0.045827 -0.139727 -0.162436 0.043254 -0.134377 -0.273607 0.076870 0.118964 -0.139130 -0.191906 0.061199 0.271183 -0.329951 -0.038772 -0.000844 -0.219943 -0.015921 0.205195 -0.004166 -0.009581 0.116351 -0.108231 0.222012 0.066756 0.203868 -0.367275 0.090957 0.137801 0.083027 -0.373442 0.052593 0.083733 -0.141046 -0.028009 -0.066569 0.107043 0.135869 -0.261821 -0.510614 -0.098176 0.017696 0.080637 -0.048380 0.087555 -0.412885 0.033621 0.046843 0.275142 -0.206073 0.054469 -0.051193 -0.130226 0.020832 0.033214 0.167192 -0.054662 -0.033214 -0.043658 -0.110300 -0.073174 0.212701 0.107360 -0.141377 -0.263849 0.330689 0.116135 -0.157924 0.293516 0.071095 -0.133787 -0.344375 0.083829 -0.019857 0.079688 0.120104 0.268505 0.163590 0.153546 0.100953 -0.204634 -0.181228 0.222415 -0.327087 -0.189194 0.142824 -0.335939 -0.070190 -0.082165 0.134366 0.219432 -0.118554 0.109081 -0.107618 -0.119095 -0.191747 0.214043 -0.039835 0.011219 0.154287 -0.003345 -0.042515 -0.022183 -0.203537 0.034881 -0.120813 0.203014 0.648782 0.239596 0.212645 0.297998 -0.022369 -0.094603 -0.030856 -0.067671 0.456052 -0.036461 -0.105391 -0.146092 0.413085 -0.116503 0.054680 0.114196 0.241971 0.019189 0.051827 0.276487 -0.218749 -0.023004 -0.081155 0.327693 0.106912 -0.141380 -0.008796 0.094073 0.198395 -0.079283 -0.166482 -0.110721 -0.204014 -0.067069 0.132671 0.137357 -0.044134 -0.241047 0.116917 0.068289 -0.171265 0.002388 -0.195254 0.134282 -0.006261 0.014599 -0.202548 -0.007530 0.125893 0.078777 0.143587 -0.002327 0.155182 -0.195653 0.109376 0.164412 -0.172080 -0.123352 -0.306789 -0.124219 0.344083 -0.131268 -0.009385 -0.160132 -0.120579 -0.060690 0.115597 -0.020753 0.241492 0.189121 0.030225 0.417472 -0.001495 0.156436 0.119065 0.166890 -0.125049 0.099604 -0.009910 -0.108790 0.224946 0.334286 0.063920 
untuk 0.272181 -0.052576 0.254712 0.037221 -0.191657 -0.165183 -0.056798 0.097483 -0.043789 0.121559 -0.214345 0.153565 -0.258895 -0.090690 -0.161396 -0.046612 0.256604 -0.023832 0.055284 -0.040638 -0.132592 -0.034652 0.028159 -0.024490 -0.070374 0.044454 0.074945 0.259691 -0.029378 0.065368 0.202385 0.082066 -0.122604 -0.001292 -0.254854 -0.259234 0.134377 -0.037248 0.244111 0.021080 -0.047351 -0.263257 -0.143310 -0.167270 0.062377 -0.190227 0.107468 -0.018785 0.042550 0.009842 0.236410 -0.096388 0.158911 0.026687 0.038760 -0.002124 -0.035050 0.342242 -0.018289 -0.013372 -0.260020 0.144137 -0.302637 -0.041362 0.018265 0.080183 -0.163366 -0.060717 -0.107638 -0.012157 0.130772 -0.351934 0.243145 -0.132718 -0.035078 -0.000159 -0.017349 -0.182312 0.005483 0.027242 0.369559 0.048451 0.105118 0.031800 0.086324 -0.149507 -0.092883 0.203854 0.185627 0.148340 -0.200236 0.216011 0.111915 0.029428 0.111271 0.007116 -0.072465 0.036242 -0.182828 -0.026943 -0.061515 -0.090895 -0.237436 -0.389011 -0.162752 0.019149 -0.138115 0.336416 -0.000707 0.195621 0.130056 0.175007 0.044864 0.049833 -0.109356 0.043557 -0.001961 0.072808 0.055868 0.095549 0.354468 -0.062269 -0.130106 -0.188965 0.009162 -0.051614 -0.056358 -0.129304 0.138218 0.150330 -0.018371 -0.115201 -0.153677 0.091647 -0.152567 0.106718 0.191868 0.139458 -0.076462 -0.005799 -0.120102 0.613944 0.212857 0.131920 0.047762 0.073861 -0.076477 0.084262 -0.287713 -0.166633 -0.219262 -0.142049 -0.040778 -0.139419 0.033115 0.273576 -0.066488 -0.253279 -0.205340 -0.212921 0.398538 -0.326023 0.174088 0.372708 0.252209 -0.127596 -0.263857 -0.117830 -0.053622 -0.400902 0.104253 -0.055761 0.095325 0.021288 -0.176979 0.233064 -0.110249 -0.184724 -0.234127 -0.110016 -0.044364 -0.094241 -0.020855 0.033557 -0.174839 -0.138873 -0.038131 -0.037242 -0.092561 0.220567 0.138414 0.103361 0.293294 -0.014385 -0.047651 -0.022092 0.083427 0.084929 0.069539 0.045338 -0.040107 -0.340850 0.038947 -0.071039 0.067054 0.099689 0.087363 -0.144819 -0.054938 -0.121848 0.040086 0.191423 -0.273450 -0.020237 0.186024 0.142679 0.183911 0.168493 0.048976 0.192735 0.025831 -0.027396 -0.001501 -0.046555 -0.101829 -0.069375 0.006995 0.093863 -0.045187 -0.023139 -0.032920 0.095200 -0.177173 0.258436 0.083631 0.048553 0.131620 -0.016637 -0.130092 -0.060997 -0.123258 0.050856 -0.151920 0.145358 -0.220001 0.130780 0.080822 0.164836 -0.112113 -0.156429 0.146021 -0.140648 0.161137 -0.190324 -0.296435 -0.161568 0.181445 0.200828 0.147641 0.084042 0.079411 0.073197 -0.252746 -0.200271 -0.063984 -0.142033 0.199122 0.011842 0.034417 -0.069414 -0.362243 0.104826 0.092710 0.192404 -0.017312 -0.004340 -0.114750 0.152693 -0.003179 0.188844 0.172863 0.312095 -0.074291 0.104303 -0.101993 0.216438 -0.070770 -0.045109 0.064057 -0.053260 -0.134714 -0.300853 -0.132829 0.330051 0.136638 0.053542 -0.082038 0.227090 0.047853 -0.333068 
dengan 0.083929 -0.125515 0.076070 -0.115558 -0.062492 -0.119919 0.046330 -0.224211 -0.254842 -0.056516 0.197686 0.158333 -0.112174 -0.196561 -0.212521 0.009463 0.095193 -0.069110 0.058112 -0.161841 0.131947 -0.089443 -0.021968 -0.093850 0.098465 -0.040667 0.338892 0.152304 -0.152845 0.041401 0.211354 0.130269 -0.080087 -0.112219 0.127119 -0.134567 -0.006851 -0.011703 0.154618 -0.129257 -0.106891 0.014186 0.119200 -0.119406 -0.096601 -0.106220 -0.011419 0.044461 -0.165654 -0.047256 -0.117396 0.104951 -0.114048 -0.041903 0.139384 0.141739 -0.224189 0.278180 0.135506 -0.136372 -0.123677 0.090125 -0.184523 -0.192434 0.044466 0.135157 0.014642 -0.190505 0.037245 0.200992 0.111350 -0.182784 -0.093844 -0.132427 -0.247536 0.299268 0.026707 0.020425 -0.182853 0.013119 0.099118 0.098638 0.151493 0.126602 0.098868 -0.148847 -0.071915 0.089320 0.295055 0.042608 -0.152126 0.175987 0.118687 0.013068 0.095990 -0.058835 0.045342 0.101779 -0.018678 0.090540 0.044698 -0.069252 -0.152363 -0.053909 0.170199 -0.066480 -0.019010 0.264201 -0.060110 0.124466 0.111846 0.182459 -0.103116 -0.076036 -0.029014 -0.116949 -0.202089 0.089658 0.133835 0.032240 0.046296 -0.175304 0.067955 -0.226436 -0.075179 -0.057740 -0.125452 -0.063249 0.248395 0.182102 0.015415 0.141606 -0.181852 0.177089 -0.187473 0.305416 -0.036939 0.049127 -0.000196 -0.027661 -0.154274 0.286944 0.039141 0.020253 -0.146664 0.000741 0.089259 0.194985 -0.322471 -0.221387 -0.096970 -0.025651 -0.032447 -0.029066 0.046932 -0.254702 0.002481 -0.006606 -0.052542 -0.246418 0.229324 -0.252251 -0.096693 0.190468 0.069263 -0.003006 -0.154412 -0.066150 -0.069836 -0.166222 0.122487 0.224854 0.071731 -0.041610 -0.306266 0.232051 0.100641 -0.217355 0.235752 0.001780 -0.088196 -0.334558 0.058847 -0.006537 -0.055608 -0.021870 0.151817 0.156899 -0.024077 0.116006 -0.132211 0.092372 0.360703 -0.110775 -0.100345 0.132554 -0.148160 0.042186 -0.023422 0.045545 0.176283 -0.169468 0.244468 -0.078100 -0.027511 -0.154684 0.240673 -0.090853 -0.036619 0.030045 -0.033404 0.100897 -0.166830 -0.080577 0.154288 -0.185669 0.249262 0.324671 0.450203 0.308884 0.209906 -0.112744 0.040007 -0.016660 -0.069715 0.195464 -0.003804 -0.035793 -0.139971 0.032626 -0.087711 0.127551 0.020951 0.047024 0.029315 -0.025604 0.323216 -0.146685 -0.079970 -0.217552 0.027166 0.130701 -0.031563 0.061299 -0.113253 0.131477 0.033198 -0.021145 -0.170675 -0.090387 0.060966 -0.020431 0.193910 -0.133676 -0.262375 0.041923 0.173328 -0.084889 0.112801 -0.262089 0.219558 -0.071914 -0.048871 -0.134654 0.027140 0.073339 0.196103 0.115959 0.048205 0.118726 -0.170733 0.099179 0.234393 0.064297 -0.096866 -0.174905 -0.094882 0.490913 -0.197613 0.027894 -0.047301 0.057914 -0.114425 0.043072 -0.034454 0.190070 -0.004759 -0.032547 0.226737 -0.044480 0.114336 -0.024650 0.134126 0.128420 0.075142 -0.008779 -0.225545 0.167364 0.134230 0.017088 
dapat -0.200591 -0.188018 -0.003867 -0.168363 -0.061531 -0.170725 0.033653 -0.253232 -0.317103 0.018590 0.184276 0.121732 -0.102045 -0.028849 -0.107023 -0.025896 0.060898 -0.064279 0.008421 -0.066972 0.111075 -0.058018 -0.014432 -0.080773 0.170290 -0.096504 0.242217 0.039328 -0.067976 -0.015530 -0.020606 0.017444 -0.058417 -0.062572 0.165229 -0.085842 -0.024880 0.053899 0.008136 -0.101814 -0.074444 0.083441 0.114447 -0.135605 -0.044967 0.014209 -0.096486 0.248520 -0.052418 -0.075721 -0.029735 0.164469 -0.201742 0.049090 0.105349 0.048931 -0.250892 0.109299 0.164587 -0.054957 -0.052539 0.168948 -0.143265 -0.197985 -0.041393 0.052567 0.051782 -0.103415 0.224188 0.229575 -0.110296 0.012352 -0.135792 -0.180036 -0.260184 0.302568 -0.016819 0.042191 -0.207556 0.025985 -0.078088 0.227509 0.085133 0.072478 -0.097553 -0.148199 -0.021802 -0.087673 0.114436 -0.001469 -0.207856 0.172637 0.183856 0.056370 0.049131 -0.174963 -0.001585 0.118595 0.234931 0.024720 0.178235 0.073515 -0.026938 -0.010371 0.121523 0.051028 -0.088153 0.151460 -0.103616 0.165631 0.268541 0.090179 -0.104996 -0.061648 0.011818 -0.076817 -0.221710 0.015117 0.154140 -0.109183 -0.169518 0.062096 0.184234 -0.242219 -0.057026 0.021083 -0.160109 0.052806 0.155192 0.017361 0.053301 0.093879 -0.133986 0.161996 0.017039 0.237450 -0.214587 0.088981 0.029488 0.113235 -0.161011 0.072405 -0.028110 -0.023630 -0.037738 0.059870 0.083050 0.200017 -0.128798 -0.327161 -0.100068 -0.032834 0.020359 -0.093249 0.023249 -0.300710 0.002995 0.060206 0.158727 -0.111291 0.026222 -0.076368 -0.102280 0.006860 0.012711 0.121110 -0.001102 -0.050686 -0.069128 -0.025174 -0.019554 0.112169 0.075984 -0.066438 -0.173851 0.222443 0.103914 -0.032701 0.230482 0.073459 -0.042092 -0.228741 -0.012926 0.073228 0.052409 0.056898 0.197256 0.128852 0.104214 0.030037 -0.063693 -0.080407 0.205103 -0.236314 -0.151773 0.097043 -0.237811 0.064230 -0.069895 0.025486 0.144831 -0.063339 0.086206 -0.147991 0.016310 -0.202957 0.111888 -0.062071 0.020973 0.090617 0.029361 -0.018862 -0.011862 -0.125832 0.045164 -0.132743 0.175998 0.391032 0.276369 0.242783 0.179404 -0.021355 -0.140172 -0.084012 -0.059136 0.264053 -0.024593 -0.042599 -0.047651 0.287926 -0.130406 0.081502 0.105035 0.055784 0.032488 0.035132 0.224843 -0.220355 -0.089755 -0.074696 0.251617 0.006276 -0.049577 0.002230 0.080894 0.160741 -0.095222 -0.132366 -0.060279 -0.095465 -0.125866 0.083617 0.055713 -0.032511 -0.195097 -0.029470 0.051972 -0.119737 0.099131 -0.210440 0.051565 -0.026712 -0.026184 -0.141648 0.012081 0.149971 0.102350 0.174374 -0.018644 0.092313 -0.118956 0.089005 0.198222 -0.128736 -0.084934 -0.323064 -0.099217 0.295021 -0.065022 -0.104782 -0.057739 -0.086760 -0.056661 0.050383 0.052403 0.082784 0.142697 0.025232 0.269999 0.015976 0.204065 0.081556 0.072776 -0.030631 0.101548 -0.032417 -0.175826 0.139671 0.202033 0.022938 
microsoft 0.300511 -0.234153 -0.239057 -0.016963 -0.042636 -0.087144 0.002744 -0.291380 -0.126126 0.224510 0.042410 0.218148 -0.136989 0.043142 0.052596 0.004748 0.080737 -0.203629 0.089193 0.136166 -0.128875 -0.003730 0.094525 -0.370975 -0.102383 -0.132211 -0.201112 0.115896 0.051682 -0.055631 -0.172610 -0.021945 -0.141012 0.033745 0.161322 0.027568 0.212536 -0.152317 0.157395 -0.027356 -0.031438 0.061472 0.251263 -0.167194 0.046654 0.222828 -0.220819 0.159468 0.172984 0.057825 0.226601 0.049038 -0.048168 0.136682 0.109976 0.181431 -0.159800 0.200536 0.066045 -0.024491 -0.000503 0.073880 -0.235304 -0.206824 -0.015038 0.061353 0.024561 -0.175643 0.081412 0.200697 -0.198391 -0.009596 0.209857 -0.207191 -0.086894 0.103247 -0.248728 0.058735 -0.235166 0.138716 -0.281312 0.089165 0.250806 -0.007190 0.132835 -0.085513 -0.003224 0.106027 -0.134199 0.039861 -0.108667 0.305851 -0.000439 0.274236 0.041894 -0.127552 0.155865 0.063397 0.148481 -0.113483 0.038855 0.147839 0.303538 -0.120711 0.175250 0.177874 -0.216101 0.054890 0.062503 -0.113874 0.217121 0.309183 -0.026891 -0.026101 0.022926 0.517370 -0.103121 0.064427 0.103825 -0.317900 -0.188191 0.249837 -0.002185 -0.067402 0.171993 0.096054 -0.068416 0.038929 0.275010 0.299325 0.105024 -0.097847 -0.185503 0.030550 -0.296680 0.293417 0.114247 0.081320 -0.027678 0.034323 -0.051622 0.062127 -0.188274 -0.105403 0.172431 0.246586 0.286469 0.449701 -0.165055 -0.230766 -0.094401 -0.009829 -0.265059 0.075141 -0.077860 -0.000869 0.002574 -0.159368 0.039652 0.044203 0.097343 -0.175500 0.020936 0.193166 -0.211995 -0.071238 -0.064151 0.040232 0.101306 0.004552 0.145186 -0.022118 0.008906 -0.169768 -0.144856 -0.171122 -0.089985 0.028134 0.145458 -0.211857 -0.119267 -0.199066 0.081166 -0.039604 0.052804 0.067109 -0.117259 0.109363 -0.039797 -0.190206 0.180430 -0.015901 0.177017 -0.121404 0.013530 0.131060 0.103523 0.142023 -0.111820 0.002423 0.028517 0.069904 0.116405 -0.222662 0.192215 -0.354816 0.143490 0.046739 -0.046116 0.161829 -0.241406 0.065669 -0.333415 0.026217 0.080138 0.101987 0.021171 0.125026 0.420815 0.395424 -0.083212 0.044954 -0.123409 -0.088239 -0.136813 -0.263222 0.015422 -0.236828 0.062963 0.202189 -0.243745 0.090836 -0.067645 0.005473 0.264116 0.191422 0.338633 -0.094461 -0.215796 -0.195278 0.165517 0.051336 0.021872 0.121545 -0.021619 0.367510 -0.134363 -0.299759 0.172120 0.112624 -0.068975 -0.130195 0.346854 0.020491 -0.071866 -0.145940 0.066449 0.077193 0.216666 -0.255676 -0.011191 -0.083500 0.099048 -0.156867 -0.353033 0.319792 0.052827 0.060441 0.065697 0.178833 -0.119411 0.062919 0.062112 -0.108192 -0.037011 -0.352124 -0.063406 -0.076225 -0.028515 -0.316292 -0.023253 -0.149377 0.073119 -0.201780 0.130378 0.019724 0.004690 0.076699 0.180542 0.064588 0.157360 -0.378452 0.024512 0.029056 0.335365 0.005311 -0.111407 0.077553 -0.175188 -0.026936 
menu 0.193003 -0.135174 -0.057473 -0.120501 -0.073633 -0.015713 0.029173 -0.195278 -0.161814 -0.014090 0.099925 0.269986 -0.198108 -0.046835 0.064629 -0.011319 0.123334 -0.106461 -0.099332 -0.156930 -0.157807 -0.114966 -0.035750 -0.229925 0.066236 -0.128985 0.058887 0.131288 0.128435 0.078759 -0.130182 0.018773 -0.122633 -0.069287 0.059503 -0.135544 0.016507 -0.204722 0.195826 -0.007815 0.005405 0.097738 0.049364 0.025437 -0.141532 -0.051447 -0.109194 -0.013640 -0.102979 -0.066093 0.046353 0.155319 -0.116180 -0.023692 0.033517 0.084706 -0.027892 0.028222 -0.096506 -0.318429 -0.074250 0.041094 -0.146701 -0.081786 -0.065996 0.149295 -0.019547 -0.198850 0.155712 0.149215 0.011253 -0.078405 0.200312 -0.087267 -0.066504 -0.003638 -0.149249 -0.017626 -0.104164 0.052986 0.033369 0.120619 0.023606 0.168172 0.171540 -0.094680 0.130748 -0.007672 -0.053915 -0.033265 -0.054645 0.109917 0.008600 0.045986 0.096621 0.041063 0.021869 0.073030 0.170841 -0.010615 0.023519 0.186156 0.096304 -0.095033 0.157709 0.136694 -0.172807 0.034596 0.027153 0.096230 0.067940 0.157739 -0.128452 0.001923 -0.008851 0.287628 0.070674 0.063034 0.034192 -0.144217 -0.038021 -0.016062 0.039066 0.009060 0.062836 -0.047437 0.054315 0.004683 0.204192 0.184621 0.043704 0.005180 -0.004764 0.043278 -0.077693 0.022265 0.030556 0.127810 0.195254 -0.028431 -0.069539 0.061257 0.031312 -0.214430 0.070513 0.099566 0.138252 0.154933 -0.136370 -0.167442 -0.002192 0.088051 -0.214923 0.088019 0.031760 0.034063 0.047904 -0.217563 -0.011036 -0.111424 0.199898 -0.187686 0.072249 0.164682 0.006127 0.043515 -0.085739 -0.082137 0.125831 -0.111457 -0.005807 0.078905 -0.051007 -0.238502 -0.128301 0.002965 -0.128252 -0.074336 0.069139 -0.084687 -0.027770 -0.215625 0.131658 -0.155514 -0.033344 0.006930 -0.048104 -0.018557 0.001810 -0.000992 -0.048068 -0.069333 -0.078215 -0.146839 -0.078821 0.092665 -0.055748 -0.068021 0.023332 0.065940 0.031061 0.018183 0.189976 -0.096049 0.120570 -0.156941 0.144450 0.093851 -0.075304 -0.041874 -0.098385 -0.065142 -0.136374 0.036845 -0.043245 0.014486 0.013002 0.223612 0.144416 0.095250 -0.003579 0.023199 -0.022245 0.001797 -0.026055 -0.130566 -0.015425 -0.053768 0.116426 0.157744 0.065272 -0.004225 -0.209992 0.065406 0.167101 0.128120 0.275533 -0.037309 0.054973 -0.128739 0.046829 0.023735 -0.187216 0.045351 -0.036073 0.123327 -0.060495 -0.276325 0.005902 -0.013784 -0.022395 -0.323335 0.218058 -0.084091 -0.111257 -0.090365 -0.097132 -0.029706 0.059548 -0.073405 -0.007522 -0.119879 -0.034950 -0.154620 -0.199414 0.082496 -0.054346 -0.013805 0.071857 0.029292 -0.133921 0.116368 -0.197663 -0.135937 -0.085926 -0.114299 -0.107223 -0.053580 -0.032874 0.109317 -0.076825 -0.048310 -0.035492 -0.109659 -0.239725 0.199014 0.032735 0.063047 0.130688 -0.096110 0.046503 -0.140727 0.034682 0.047636 0.064080 0.064032 0.059276 0.299397 -0.073971 -0.068995 
file 0.009178 -0.126770 0.078882 -0.120814 -0.138010 -0.115103 0.103140 -0.183077 -0.359524 -0.070391 0.181302 0.330500 -0.296399 -0.180162 -0.184341 -0.023491 0.195203 -0.142936 -0.005831 -0.209792 0.012814 -0.002992 -0.133275 -0.140935 0.282061 -0.119280 0.269047 0.135704 0.000774 -0.029031 -0.012666 0.056024 -0.050149 -0.178791 0.098201 -0.102977 -0.067554 -0.025782 0.197015 -0.170903 -0.076351 0.071462 0.059083 -0.116888 -0.089867 -0.037640 -0.105742 0.132241 -0.155125 -0.248777 -0.026513 0.253940 -0.256109 -0.103448 0.240797 0.090416 -0.255116 0.112735 -0.004292 -0.142246 -0.145352 0.131349 -0.138308 -0.109511 0.101214 0.079693 -0.065228 -0.208394 0.220759 0.187156 -0.022104 -0.061137 -0.071853 -0.086064 -0.398983 0.223604 -0.008096 0.063714 -0.219490 -0.195775 0.063049 0.210053 0.179959 0.119650 -0.030355 -0.221208 0.039917 -0.011830 0.222559 0.018401 -0.263999 0.209358 0.171580 -0.048639 0.150702 -0.135647 -0.076644 0.088843 0.209315 0.042317 0.161335 0.142656 0.002667 -0.102909 0.233029 0.033805 -0.172830 0.144339 0.032097 0.288468 0.294001 0.095864 -0.082597 -0.195995 0.022928 -0.064225 -0.107413 0.116529 0.001973 -0.148343 -0.071440 0.003377 0.121708 -0.240097 -0.016989 -0.052868 -0.131146 -0.038528 0.235922 0.081857 0.010474 0.030154 -0.161230 0.138847 0.052418 0.164075 -0.139483 0.134448 0.229723 -0.040993 -0.318536 0.124763 0.171966 -0.164201 0.089210 0.100930 0.161327 0.097323 -0.346208 -0.431861 -0.095260 0.129572 0.033310 -0.041424 0.120318 -0.219284 0.034776 -0.140654 0.091265 -0.274790 0.108272 -0.080048 -0.083645 0.235481 0.037634 0.046808 -0.128742 -0.147357 -0.051644 -0.111748 0.082341 0.167537 -0.042802 -0.227428 -0.208954 0.275221 -0.073141 -0.212866 0.247354 -0.001482 -0.141253 -0.324594 0.159344 -0.034410 -0.013414 0.012992 0.112600 0.192696 0.010641 0.180866 -0.135188 -0.179703 0.335587 -0.196314 -0.167780 0.050640 -0.253250 -0.130894 0.010455 0.024510 0.185777 -0.183182 0.124609 -0.170573 -0.014711 -0.074761 0.241641 -0.062530 -0.070761 0.118712 0.004328 0.024944 -0.148728 -0.169624 0.107201 0.031927 0.136553 0.505835 0.234068 0.238536 0.271802 -0.019941 -0.047788 -0.038344 -0.016197 0.248661 -0.061400 -0.136459 -0.129521 0.288571 -0.104178 0.021535 -0.014000 0.272326 0.061808 0.017379 0.210636 -0.253278 -0.063068 -0.148754 0.200585 0.145321 -0.152326 0.113118 -0.054937 0.307843 -0.020459 -0.131732 0.016634 -0.193369 -0.013891 -0.010556 0.198851 -0.140734 -0.212392 0.131634 0.135928 -0.131540 0.015150 -0.157051 0.066624 -0.017127 0.006358 -0.222382 -0.092731 0.037488 0.146452 0.104731 0.087257 0.203621 -0.177009 0.050718 0.031960 0.001635 -0.108292 -0.322006 -0.034645 0.268820 -0.159000 0.114603 -0.056527 -0.008389 0.041836 0.058098 -0.132701 0.336641 0.097157 0.148827 0.374746 -0.003536 0.153028 -0.015131 0.232200 -0.062600 0.122320 0.064712 -0.137917 0.200871 0.243864 0.022898 
akan -0.085830 -0.115418 0.090157 -0.083817 -0.118034 -0.122769 0.060882 -0.134061 -0.354685 -0.061951 0.174790 0.266873 -0.215522 -0.186010 -0.225203 -0.049473 0.160088 -0.079407 -0.002195 -0.236121 0.072024 -0.053057 -0.112364 -0.118117 0.300571 -0.129076 0.308794 0.079938 -0.072850 -0.011477 0.023155 0.068670 -0.018173 -0.181816 0.128926 -0.081609 -0.049571 -0.038009 0.130801 -0.175103 -0.082729 0.109346 0.075571 -0.126143 -0.088045 -0.057558 -0.097820 0.157150 -0.169380 -0.264584 -0.105789 0.232036 -0.253132 -0.071502 0.227986 0.039099 -0.215635 0.105235 0.112667 -0.146286 -0.095864 0.169654 -0.106548 -0.104068 0.092409 0.059661 -0.022470 -0.231875 0.239730 0.191206 -0.011265 -0.032642 -0.067875 -0.115850 -0.369540 0.197145 0.008161 0.064982 -0.206624 -0.216478 0.047387 0.157883 0.130084 0.133048 -0.068165 -0.163481 -0.001903 -0.073322 0.196295 0.020298 -0.263156 0.186486 0.193844 -0.136177 0.129721 -0.158967 -0.110033 0.134810 0.180988 0.066281 0.186470 0.104466 -0.078898 -0.042338 0.156342 0.067293 -0.167398 0.123557 -0.066824 0.283379 0.299958 0.067401 -0.097051 -0.143018 0.050446 -0.128048 -0.163856 0.074504 0.018872 -0.120605 -0.063288 -0.000450 0.190040 -0.266449 -0.042378 -0.055373 -0.112492 -0.061430 0.230078 0.020330 0.005917 0.052364 -0.130499 0.145328 0.069274 0.162586 -0.168077 0.096441 0.176535 -0.006702 -0.343839 0.089981 0.141448 -0.125778 0.033805 0.017773 0.128146 0.080850 -0.299384 -0.410836 -0.054649 0.019758 0.065552 -0.059227 0.104008 -0.229047 0.034970 -0.060774 0.112646 -0.265541 0.086089 -0.017795 -0.108289 0.134924 0.065130 0.082511 -0.079294 -0.129046 -0.070518 -0.121052 0.028710 0.190122 -0.076573 -0.141734 -0.173698 0.363730 -0.048639 -0.203810 0.224733 0.040446 -0.114867 -0.287614 0.073654 -0.024776 0.023188 -0.010372 0.213215 0.261704 0.072008 0.175742 -0.168071 -0.147259 0.269981 -0.227915 -0.184822 0.058299 -0.302824 -0.153206 -0.064046 0.067480 0.182891 -0.236522 0.082627 -0.107935 -0.030253 -0.042834 0.208871 -0.056041 -0.021734 0.105316 0.030087 -0.028211 -0.107835 -0.143219 0.008959 0.008042 0.237479 0.502383 0.164896 0.226895 0.265572 -0.092041 -0.090226 0.009256 0.004159 0.317260 -0.046815 -0.083236 -0.115958 0.284532 -0.127745 0.043059 0.041050 0.237898 -0.031961 0.034568 0.145807 -0.222959 -0.019827 -0.141654 0.164734 0.095167 -0.121363 0.048501 -0.013567 0.234033 -0.019048 -0.105402 -0.031817 -0.277451 -0.020710 0.111593 0.133182 -0.120773 -0.195674 0.137128 0.122440 -0.125838 0.059095 -0.141916 0.059435 0.026017 0.016139 -0.206067 0.062075 0.002759 0.156431 0.073253 0.071121 0.188813 -0.125126 0.109585 0.090567 0.010572 -0.055790 -0.237007 -0.065147 0.311018 -0.071649 0.107103 -0.079792 -0.068079 -0.031974 0.156978 -0.080081 0.277808 0.141548 0.124701 0.388728 -0.032968 0.166485 0.035612 0.162423 -0.104218 0.059591 0.062596 -0.158396 0.189194 0.325144 0.037506 
atau -0.216940 -0.191616 0.129641 -0.115092 -0.089714 -0.197177 0.076424 -0.161107 -0.337592 -0.011585 0.112122 0.198914 -0.175714 -0.160526 -0.217840 -0.030395 0.178154 0.029036 0.026262 -0.141845 0.103396 -0.064374 -0.045459 -0.085191 0.248225 -0.044132 0.384500 0.069583 -0.027660 -0.038185 0.012476 0.040459 -0.080865 -0.177337 0.095893 -0.163460 -0.075240 0.066923 0.096752 -0.180799 -0.096956 0.063996 0.066193 -0.128386 -0.028676 -0.079283 -0.048550 0.233286 -0.127351 -0.171632 -0.107794 0.179557 -0.114487 0.018533 0.128141 -0.015480 -0.219463 0.136218 0.166328 -0.032102 -0.166736 0.267751 -0.227569 -0.187542 0.022650 0.090455 0.011581 -0.089142 0.225306 0.192248 -0.053000 -0.083153 -0.130938 -0.182409 -0.270063 0.297242 0.060524 0.035318 -0.202160 -0.084648 0.052763 0.268605 0.066442 0.107543 -0.077465 -0.196280 -0.082025 -0.112082 0.229258 0.071641 -0.288509 0.121921 0.240245 -0.089019 0.026992 -0.188844 -0.125490 0.131057 0.111683 0.031790 0.120355 0.048761 -0.155888 -0.094653 0.059849 0.031065 -0.119180 0.277860 -0.115972 0.322885 0.277471 0.047883 -0.098554 -0.066188 -0.008619 -0.222081 -0.312281 0.057192 0.144733 -0.047960 -0.025877 -0.028835 0.194289 -0.363048 -0.114905 -0.035997 -0.188172 -0.019770 0.105665 0.052847 0.063539 0.068241 -0.123065 0.185432 0.067602 0.259052 -0.235287 0.051449 0.096959 0.133886 -0.273700 0.245305 0.065273 -0.077690 -0.072266 -0.032641 0.003643 0.147989 -0.241209 -0.429188 -0.121882 -0.079157 0.072905 -0.137548 0.092684 -0.210269 -0.045576 0.034851 0.145213 -0.218762 0.151724 -0.166906 -0.046881 0.046738 0.125476 0.129934 -0.008009 -0.123936 -0.104824 -0.220471 -0.002641 0.168633 0.084124 -0.073856 -0.177918 0.401691 0.053892 -0.107731 0.075865 0.083645 -0.047474 -0.223113 -0.035634 0.042156 0.015242 0.018584 0.288519 0.173968 0.128332 0.121713 -0.071953 -0.085757 0.248727 -0.229287 -0.205578 0.026190 -0.243960 0.004217 -0.003558 0.088207 0.144636 -0.264527 0.019810 -0.019566 -0.002912 -0.080376 0.103804 -0.112359 0.091833 0.127594 0.181316 -0.015327 -0.021718 -0.151466 0.025739 -0.161240 0.293849 0.447153 0.174782 0.143903 0.278126 -0.028228 -0.139281 -0.021374 -0.063947 0.400904 -0.066969 0.068672 -0.062837 0.254749 -0.083375 0.100723 0.036991 0.168115 -0.035520 -0.003967 0.164102 -0.145916 -0.017256 -0.041643 0.189361 0.068084 -0.126613 0.002385 0.030820 0.121101 -0.016162 -0.009153 -0.191888 -0.255332 -0.083938 0.121313 0.091615 -0.055693 -0.296783 -0.031904 0.136092 -0.083020 0.125159 -0.117711 0.083896 0.006845 -0.162486 -0.185335 0.069131 0.051909 0.165951 0.131018 0.010413 0.113494 -0.234233 0.099590 0.170203 -0.106266 -0.032371 -0.179362 -0.140531 0.374924 -0.093977 0.038687 -0.044497 0.016074 -0.132996 0.119057 -0.107516 0.151784 0.146622 -0.022064 0.326208 -0.095280 0.156875 0.061922 0.017578 0.034331 0.025931 -0.007403 -0.142789 0.130130 0.314868 -0.098762 
gambar 0.131815 -0.103124 0.100474 -0.134088 -0.140358 -0.046061 0.034016 -0.096793 -0.081631 0.039896 -0.017839 0.153630 -0.149741 0.030106 -0.046454 -0.055778 0.104927 -0.116899 -0.055100 -0.112562 -0.108126 -0.108299 0.013020 -0.048591 -0.012033 -0.008837 0.051251 0.143717 0.036853 0.106226 0.002254 -0.048530 -0.075833 -0.010854 -0.070416 -0.141053 0.017705 -0.052635 0.095443 0.020471 -0.051864 -0.035068 -0.067805 -0.046555 -0.044041 -0.108668 -0.023156 -0.002382 -0.052222 -0.000460 0.156599 0.066290 -0.017217 0.014608 0.013840 0.126306 -0.028644 0.129431 -0.038018 -0.156754 -0.140594 0.044944 -0.183773 -0.088621 -0.048533 0.109823 -0.010744 -0.078679 0.020936 0.079549 0.038567 -0.175370 0.106449 -0.070079 -0.021426 0.047441 -0.087510 -0.114028 0.008038 0.060137 0.127964 0.089453 0.014490 0.111354 0.094719 -0.088160 0.050053 0.109435 0.016314 0.027201 -0.072477 0.140763 0.063197 0.091719 0.086635 0.046425 0.046982 0.058014 0.087143 -0.024156 0.034857 0.074272 -0.030657 -0.207916 0.013346 0.021128 -0.081404 0.125719 0.031731 0.156590 0.093093 0.107653 -0.073190 -0.028391 -0.021901 0.118288 0.018178 0.027037 0.052635 -0.016968 0.067717 -0.041003 -0.051725 -0.033153 0.014694 -0.007844 -0.039465 0.054403 0.174995 0.102736 0.026854 -0.014073 -0.069647 0.110180 -0.063706 0.027963 0.086225 0.121364 0.018267 -0.022240 0.017158 0.215090 0.092729 -0.011642 -0.021186 0.099186 0.010198 0.092841 -0.168830 -0.121491 -0.079822 0.048637 -0.109364 -0.047707 0.007215 0.037057 0.042162 -0.127603 -0.091109 -0.094225 0.156061 -0.195388 0.069800 0.193210 0.063115 -0.012945 -0.116300 -0.095521 0.031750 -0.132784 -0.016157 -0.011423 0.027670 -0.090563 -0.150423 0.075676 -0.056189 -0.085090 0.031031 -0.052715 0.003338 -0.155832 0.036582 -0.020153 -0.086253 -0.085159 -0.084968 -0.072640 -0.033848 0.042307 0.068286 0.002666 0.063567 -0.141703 -0.033983 0.082058 0.002202 0.004727 0.027572 0.000227 0.009010 -0.089687 0.155097 -0.123739 0.102469 -0.062274 0.083413 -0.036250 -0.013637 -0.136764 -0.033158 0.033239 -0.090313 0.030267 0.086917 0.018324 0.039525 0.133964 0.108756 0.139615 -0.010920 0.061683 0.008160 -0.045585 -0.013025 -0.074833 0.022906 0.006577 0.045310 0.087671 0.029023 0.006717 -0.138972 0.052994 0.202153 0.012437 0.245389 -0.112470 -0.036919 -0.041776 0.084143 0.039080 -0.187922 0.034515 -0.076505 0.129732 -0.051708 -0.077114 -0.065485 0.032251 -0.009811 -0.252494 0.138071 -0.098917 -0.204208 -0.147666 0.070559 -0.013175 0.001843 -0.018486 0.027601 -0.008053 -0.122745 -0.149982 -0.119294 0.003024 -0.011840 0.034436 0.011901 -0.023529 -0.238235 0.091274 -0.034089 -0.016330 -0.080854 -0.140385 -0.085793 0.043318 -0.026574 0.082971 0.027073 0.132855 -0.047104 -0.056241 -0.103389 0.197184 -0.000463 0.007694 0.065907 -0.063735 0.022252 -0.073525 -0.005956 0.187167 0.052468 0.015207 -0.026954 0.216855 -0.038530 -0.102850 
adalah 0.092221 -0.157395 0.038704 -0.074595 -0.075837 -0.095851 0.060198 -0.155543 -0.206141 0.060126 0.025394 0.197208 -0.161133 -0.089433 -0.073668 0.012085 0.183473 -0.044420 0.026664 -0.069304 -0.057652 -0.049400 0.003360 -0.204781 0.061067 -0.071251 0.118061 0.115280 0.023416 0.010429 -0.026734 0.021822 -0.088917 -0.095459 0.024755 -0.144407 0.074566 -0.088037 0.187271 -0.075982 -0.030576 -0.012747 0.077821 -0.096141 0.004073 -0.027969 -0.043785 0.097132 -0.051590 -0.058320 0.089657 0.119083 -0.017998 0.068747 0.075586 0.048566 -0.098226 0.166769 0.082137 -0.089754 -0.111938 0.130457 -0.251735 -0.133462 -0.021152 0.118079 -0.035521 -0.094818 0.108464 0.156255 -0.030005 -0.155485 0.129239 -0.172370 -0.104467 0.132509 -0.056061 -0.017295 -0.165524 0.023615 0.049338 0.182659 0.087886 0.053458 0.069208 -0.145972 -0.003264 0.011964 0.117364 0.074141 -0.176216 0.162419 0.117721 0.037958 0.040459 -0.086994 -0.024453 0.062752 0.072179 -0.016879 0.022825 0.061484 -0.007606 -0.184703 0.048740 0.089947 -0.133230 0.209017 -0.009042 0.124556 0.173806 0.148350 -0.067502 -0.040427 0.001528 0.146347 -0.138176 0.084097 0.112954 -0.114667 0.015144 0.028825 0.064776 -0.176330 0.042528 -0.005535 -0.120345 -0.021647 0.192817 0.176040 0.062801 -0.009461 -0.080146 0.106327 -0.094939 0.162915 -0.009041 0.104530 0.064055 0.060974 -0.152458 0.266656 0.056435 -0.069714 0.018727 0.045592 0.069154 0.218657 -0.223990 -0.270882 -0.086791 -0.061182 -0.109175 -0.022576 0.022047 -0.008978 -0.036383 -0.115331 0.032036 -0.120648 0.240978 -0.232569 0.051078 0.177484 0.012817 0.019430 -0.079090 -0.042192 0.015135 -0.220375 0.016831 0.050007 0.063509 -0.107248 -0.198401 0.132004 -0.046443 -0.109360 0.009067 -0.091247 -0.048072 -0.198193 0.002908 -0.062709 -0.018847 -0.006692 0.070594 0.071753 -0.004450 0.025823 0.064304 -0.008226 0.149958 -0.167505 -0.099801 0.102527 -0.039300 0.049307 -0.013107 0.087424 0.028168 -0.114781 0.094431 -0.066046 0.048360 -0.156355 0.128966 -0.016419 0.012722 0.040736 -0.020251 0.033728 -0.158738 -0.058802 0.043584 -0.008684 0.147211 0.270181 0.206635 0.161524 0.065580 0.032765 -0.060826 -0.027039 -0.071346 0.031098 -0.010673 0.005897 -0.018649 0.169586 -0.051894 0.054334 -0.082541 0.127665 0.117827 0.088067 0.253938 -0.042382 -0.032049 -0.108577 0.095862 0.069306 -0.105696 0.056220 -0.045049 0.170795 -0.033779 -0.110414 -0.095307 -0.097681 -0.000080 -0.096390 0.226189 -0.056761 -0.206049 -0.111412 0.085630 0.051479 0.140128 -0.085659 0.078596 -0.041436 -0.097541 -0.163318 -0.129456 0.096804 0.109863 0.048780 0.060364 0.067788 -0.265635 0.115889 0.064580 -0.056079 -0.052559 -0.137900 -0.126342 0.122599 -0.057761 -0.021779 -0.006105 0.047119 -0.067900 -0.024619 -0.079940 0.160218 0.044411 -0.011064 0.206647 -0.089627 0.050279 -0.154508 -0.024676 0.119968 0.125198 0.021070 -0.060751 0.194774 0.056793 -0.143861 
di -0.046304 -0.124732 0.068186 -0.108198 -0.063566 -0.070384 0.066812 -0.101232 -0.244887 -0.009437 0.051116 0.200699 -0.135367 -0.118345 -0.110401 0.023014 0.163877 -0.010983 0.001718 -0.155794 -0.027775 -0.037200 -0.040963 -0.129512 0.158272 -0.066363 0.195479 0.060727 0.021925 0.018123 -0.024772 0.004846 -0.041161 -0.153080 0.053865 -0.132414 -0.027381 -0.055263 0.173301 -0.098800 -0.014344 0.017945 0.047985 -0.032481 -0.031037 -0.092680 -0.039085 0.086912 -0.138107 -0.131415 -0.023183 0.166735 -0.070747 0.002811 0.086602 0.025441 -0.103550 0.086874 0.029878 -0.111457 -0.079418 0.124006 -0.176680 -0.116475 0.010581 0.113248 -0.038376 -0.061423 0.159489 0.129140 -0.019085 -0.099229 0.021791 -0.113281 -0.154635 0.148139 0.022700 0.015705 -0.115555 -0.071127 0.068416 0.190212 0.023242 0.080130 0.033470 -0.173054 0.039872 -0.057881 0.117530 0.055462 -0.173546 0.085314 0.129777 -0.050293 0.038662 -0.096272 -0.090002 0.060881 0.079931 0.000078 0.039521 0.051754 -0.056394 -0.107768 0.053123 0.059537 -0.120503 0.172558 0.002362 0.190486 0.133202 0.059298 -0.092750 -0.067062 0.010199 -0.018579 -0.151915 0.080404 0.088911 -0.070957 0.004997 -0.028880 0.083075 -0.180523 -0.025137 -0.032223 -0.103077 -0.029671 0.120305 0.110523 0.050403 0.042235 -0.036356 0.116697 0.032354 0.094963 -0.124278 0.088982 0.140628 0.048404 -0.197493 0.177832 0.100040 -0.146053 -0.017269 -0.034010 0.017302 0.085152 -0.185071 -0.263513 -0.031936 -0.018671 -0.032931 -0.020027 0.044132 -0.082385 -0.016164 -0.060700 0.075358 -0.139914 0.188675 -0.163812 0.038616 0.100981 0.057416 0.093432 -0.042281 -0.069638 0.009601 -0.208470 -0.021029 0.089350 0.033988 -0.117938 -0.165732 0.188657 -0.040075 -0.109564 0.037183 -0.015733 -0.047068 -0.184324 0.008480 -0.075811 -0.001696 0.005477 0.110952 0.066207 0.046574 0.063532 -0.013386 -0.067081 0.097697 -0.174835 -0.129024 0.085176 -0.127144 -0.031120 0.032400 0.106409 0.070144 -0.138732 0.066600 -0.012949 -0.024145 -0.078110 0.120871 -0.012980 0.033631 0.043016 0.056131 -0.017086 -0.047731 -0.074128 0.006639 -0.051187 0.098935 0.308127 0.111228 0.061157 0.134544 0.025556 -0.041587 0.002129 -0.010476 0.170487 -0.022777 0.048340 -0.015793 0.187242 0.008845 0.027311 -0.077098 0.150078 0.048944 0.024975 0.189123 -0.063821 0.018785 -0.072703 0.113259 0.077126 -0.151324 0.030499 0.007893 0.114497 -0.016032 -0.083588 -0.119799 -0.113716 -0.012157 -0.047825 0.147193 -0.057015 -0.203774 -0.034235 0.068094 -0.019257 0.029354 -0.020005 0.073346 -0.032401 -0.085122 -0.138100 -0.054603 0.035823 0.057744 0.034439 0.069320 0.063941 -0.213729 0.081904 0.011269 -0.090265 -0.049402 -0.089236 -0.117809 0.154564 -0.064648 0.081572 -0.054195 0.036610 -0.087209 0.018735 -0.139179 0.174921 0.093239 0.000934 0.213310 -0.107269 0.041298 -0.005492 0.025831 0.044910 0.033294 0.024695 0.008283 0.174554 0.134688 -0.100574 
excel 0.459752 -0.353436 -0.412784 0.059140 -0.023677 -0.129236 -0.080402 -0.512771 -0.310749 0.309794 0.139034 0.263464 -0.187649 0.062090 0.239539 0.066997 0.170602 -0.327579 0.155048 0.174686 -0.170190 -0.037727 0.154367 -0.681678 -0.161870 -0.325580 -0.372697 0.101743 0.012424 -0.018320 -0.332111 0.088958 -0.271261 0.042967 0.254478 -0.022814 0.370623 -0.415454 0.261374 0.002397 0.071379 0.106888 0.479810 -0.203194 0.060481 0.345362 -0.341804 0.246182 0.277586 0.106437 0.389927 0.073904 -0.093261 0.286057 0.129605 0.140856 -0.128790 0.263131 0.205654 -0.155826 0.204815 0.119572 -0.339310 -0.272353 -0.059277 0.177374 0.062624 -0.319949 0.180686 0.363856 -0.314259 0.028522 0.517595 -0.418372 -0.102324 0.121162 -0.461106 0.123939 -0.507986 0.277178 -0.316420 0.083511 0.331033 -0.060314 0.216202 -0.099479 0.119857 0.078547 -0.214835 0.083324 -0.107655 0.497381 -0.002363 0.391784 0.033634 -0.193712 0.201764 0.047877 0.309828 -0.143359 0.036498 0.223418 0.500755 -0.125359 0.189021 0.341466 -0.421242 0.039129 -0.040223 -0.346154 0.286252 0.510687 -0.056877 -0.004329 0.048075 1.086285 -0.115089 0.115919 0.192312 -0.641383 -0.332556 0.451938 0.107970 -0.022525 0.334337 0.162711 -0.028203 -0.020040 0.485189 0.508730 0.170696 -0.121198 -0.241686 -0.004727 -0.527324 0.453396 0.190509 0.140317 -0.064948 0.112253 -0.086389 0.100477 -0.323511 -0.137409 0.319956 0.318541 0.497301 0.812720 -0.230780 -0.261142 -0.125184 -0.187190 -0.492813 0.232398 -0.117850 0.017985 -0.059554 -0.299296 0.039263 0.080432 0.228217 -0.293667 0.086681 0.252377 -0.387534 -0.075541 -0.103348 0.181415 0.218238 -0.123223 0.115407 -0.017887 0.038173 -0.242915 -0.232866 -0.346833 -0.119472 0.076587 0.256958 -0.403356 -0.155258 -0.283651 0.091495 -0.202585 0.153497 0.123830 -0.070326 0.257380 -0.093879 -0.345451 0.269153 0.038204 0.164751 -0.247493 0.003571 0.305162 0.108537 0.297092 -0.253304 0.170871 -0.063026 0.240194 0.201709 -0.293578 0.236489 -0.676769 0.243821 0.184108 -0.111531 0.210951 -0.519864 0.116648 -0.542881 0.027979 0.046085 0.130923 -0.011939 0.290340 0.697805 0.536950 -0.208351 0.073914 -0.207741 -0.120159 -0.307366 -0.504831 0.049584 -0.307526 0.081919 0.315753 -0.330514 0.071695 -0.083189 0.016420 0.393397 0.421681 0.553452 -0.030856 -0.245366 -0.430720 0.166916 -0.000047 0.064628 0.198265 0.055672 0.531109 -0.253574 -0.636198 0.294440 0.112209 -0.014678 -0.193331 0.528802 0.086339 -0.036090 -0.227752 -0.063862 0.199860 0.413876 -0.404820 0.033114 -0.199712 0.232381 -0.201892 -0.487146 0.498025 0.133412 0.015880 0.148044 0.217242 -0.096414 0.169608 0.081809 -0.222765 -0.003730 -0.487550 -0.116299 -0.170578 0.065687 -0.550483 -0.055869 -0.360521 0.075758 -0.276720 0.214822 0.004559 0.026785 0.095524 0.307466 0.025195 0.185783 -0.703784 -0.040322 -0.047648 0.572625 0.007213 -0.128564 0.272112 -0.281306 -0.141030 
data -0.134269 -0.240757 -0.027774 -0.195952 -0.030875 -0.075851 0.040003 -0.234192 -0.316921 0.039837 0.119607 0.149086 -0.102990 -0.066324 -0.061932 0.076960 0.087769 0.011778 0.067665 -0.074879 -0.010904 0.019661 -0.020542 -0.177931 0.144978 -0.092887 0.159432 0.036796 0.013963 0.003050 -0.057655 -0.049753 -0.023883 -0.127369 0.140303 -0.138625 -0.010035 -0.013423 0.172363 -0.083315 0.029283 0.061105 0.098752 -0.025139 -0.023022 0.009630 -0.065086 0.186444 -0.071234 -0.068019 0.002283 0.192532 -0.088095 0.070332 0.016739 0.039507 -0.164087 0.073873 0.101494 -0.046823 -0.004021 0.133278 -0.205178 -0.169310 -0.081374 0.125521 -0.001076 -0.026325 0.197131 0.256104 -0.094973 -0.007751 -0.038382 -0.192836 -0.114061 0.202958 -0.043228 0.037762 -0.173460 -0.038701 -0.059889 0.279900 0.049646 0.021706 0.002476 -0.171195 0.038094 -0.138082 0.088569 0.039462 -0.153993 0.124318 0.130726 0.032425 0.003215 -0.161187 -0.041903 0.051403 0.202248 -0.037412 0.040619 0.066833 0.016256 -0.042128 0.079023 0.083721 -0.164069 0.151287 -0.027380 0.090445 0.147457 0.053007 -0.107139 -0.093198 -0.002442 0.077115 -0.250481 0.071118 0.177595 -0.125979 -0.134680 0.045194 0.131849 -0.180680 0.004220 0.000633 -0.196700 0.018847 0.122796 0.084280 0.068141 0.058692 -0.039216 0.140099 -0.002620 0.171132 -0.232310 0.071383 0.045952 0.120585 -0.187598 0.090328 -0.007547 -0.102916 -0.042917 -0.072693 0.061862 0.200214 -0.136613 -0.309227 -0.064717 -0.085541 -0.058087 -0.007679 -0.000961 -0.193816 -0.006674 0.049573 0.203282 -0.069713 0.111925 -0.197707 0.032335 -0.020428 0.010053 0.117125 -0.013173 0.013072 0.035989 -0.146669 -0.064265 0.057446 0.156539 -0.101236 -0.199647 0.142013 0.085156 -0.013644 0.090421 -0.021551 -0.055176 -0.203321 0.002169 -0.057962 0.086453 0.114125 0.116285 0.017911 0.105285 -0.072769 0.006903 -0.065932 0.058017 -0.264215 -0.110884 0.158619 -0.138849 0.084304 -0.014116 0.137475 0.072604 -0.046669 0.087591 0.005978 -0.036884 -0.212877 0.117692 -0.016026 0.063134 0.127045 0.017840 -0.017073 -0.014862 -0.086027 0.027253 -0.111980 0.096375 0.329199 0.181792 0.106366 0.137025 0.057486 -0.071932 0.000765 -0.084813 0.200106 -0.007053 -0.000822 -0.034926 0.246323 -0.055305 0.016801 0.004856 0.103917 0.119636 0.052270 0.268044 -0.066836 -0.024318 -0.019665 0.234036 0.070139 -0.112811 -0.006874 0.103352 0.126040 -0.106714 -0.161223 -0.126231 -0.039362 -0.091274 -0.017868 0.165195 0.040524 -0.186507 -0.081688 0.031383 -0.045674 0.026819 -0.127895 0.101484 -0.088506 -0.051164 -0.134125 -0.120540 0.203035 0.038680 0.067941 0.012908 0.063312 -0.199330 0.082325 0.085926 -0.235598 -0.061836 -0.133071 -0.155055 0.136859 -0.092023 -0.099510 -0.105551 -0.066435 -0.109094 -0.062168 -0.022875 0.110681 0.119627 -0.078554 0.224941 -0.069401 0.075114 0.009959 -0.033791 0.007206 0.109068 -0.049843 0.013402 0.180879 0.107345 -0.045749 
menggunakan 0.082153 -0.383467 -0.153795 -0.464113 -0.026059 0.145912 0.113773 -0.381270 -0.261141 0.073763 0.171125 0.223871 -0.118677 0.118071 0.169926 0.190913 -0.019271 -0.061378 -0.034652 -0.129335 -0.306894 0.059180 -0.020798 -0.330955 -0.016992 -0.102370 -0.071346 0.088482 0.210647 0.160612 -0.214862 -0.294029 0.055086 -0.071606 0.110678 -0.263911 0.012324 -0.145369 0.320010 0.063534 0.167790 0.093846 0.014393 0.205368 -0.075706 0.009642 -0.076532 0.018603 -0.109153 0.103974 0.254497 0.263086 0.010322 0.154657 -0.201150 0.192423 -0.005767 -0.062425 -0.080243 -0.198547 0.026811 -0.040854 -0.314304 -0.160779 -0.298405 0.274081 0.025136 0.031852 0.195022 0.399880 -0.067203 -0.094339 0.151650 -0.233140 0.221370 0.044747 -0.224271 -0.096438 -0.040457 0.105914 -0.132619 0.396859 -0.074107 0.021059 0.217850 -0.169734 0.251698 -0.083750 -0.093300 -0.035181 0.074986 0.111271 0.003881 0.217539 -0.055681 0.013041 0.101060 -0.044171 0.362264 -0.187005 -0.138435 0.197861 0.222287 -0.151744 0.143830 0.167120 -0.183562 0.078830 0.189310 -0.054747 -0.061929 0.043527 -0.229602 -0.139341 -0.035251 0.534142 -0.087658 0.121665 0.195173 -0.203956 -0.214252 0.007444 -0.012801 0.128907 0.159877 0.032742 -0.206214 0.231791 0.209249 0.192741 0.073359 0.040067 0.163641 0.141311 -0.140627 -0.058357 -0.180356 0.160469 0.051617 0.091311 -0.010114 0.002510 0.002503 -0.236913 -0.097632 -0.119336 0.077610 0.265016 -0.134120 -0.250010 0.007912 0.069116 -0.319735 0.197981 -0.102781 -0.092742 0.090212 -0.007395 0.209012 0.111607 0.171296 -0.405549 0.210101 -0.050150 -0.110135 0.082814 -0.031939 0.091697 0.286546 -0.112196 -0.253696 -0.061229 0.313185 -0.243915 -0.319208 -0.183228 0.081811 0.015743 -0.003005 -0.214946 -0.014197 -0.262554 0.124216 -0.297441 0.076212 0.160309 -0.217792 -0.379996 0.096789 -0.342536 0.172785 -0.047248 -0.331182 -0.374168 0.010821 0.407875 0.101154 0.115365 0.042324 0.150472 -0.065191 0.206567 0.297746 0.012006 0.023733 -0.395110 0.160020 0.132360 0.076318 -0.031158 -0.234371 -0.055051 0.062006 0.079699 0.052974 -0.076224 -0.145927 0.167183 0.166252 -0.024931 -0.099796 0.346410 0.088427 0.009913 -0.096936 -0.144476 0.089010 -0.049781 0.130860 0.250947 0.165097 -0.123887 -0.224589 -0.011547 0.542366 0.072047 0.579104 0.058222 0.140440 0.085617 0.377024 0.172388 -0.349443 -0.104525 0.127927 0.134923 -0.195518 -0.386946 -0.230192 0.307157 -0.126171 -0.558121 0.403094 0.134031 -0.208145 -0.313582 -0.060728 -0.044197 -0.202727 -0.094087 0.141452 -0.238260 -0.099853 -0.160278 -0.550006 0.398553 -0.298502 -0.000852 -0.043188 -0.035526 -0.458901 0.130769 -0.199650 -0.511188 -0.204651 -0.055159 -0.251942 -0.297398 -0.192726 -0.168859 -0.242196 0.012474 -0.129757 -0.419503 -0.176330 0.251770 0.050183 -0.193028 0.026484 -0.183354 -0.071071 -0.042958 -0.096797 0.208595 0.098458 -0.079462 0.306665 0.367000 -0.254940 -0.006620 
dari 0.135092 -0.148854 -0.061878 -0.081426 -0.061971 -0.023467 0.039663 -0.182567 -0.186531 0.046596 0.066704 0.211782 -0.126901 -0.055255 -0.012294 0.025582 0.140583 -0.107806 0.027308 -0.042541 -0.092649 -0.014446 -0.019101 -0.230570 0.016549 -0.115977 0.005749 0.075395 0.050506 0.013268 -0.083882 -0.008905 -0.079326 -0.102898 0.091094 -0.076658 0.053571 -0.110242 0.213478 -0.063646 0.023488 0.053518 0.108194 -0.036079 0.008082 0.055394 -0.088877 0.066316 -0.038961 -0.036633 0.081490 0.156190 -0.039974 0.060039 0.101378 0.079159 -0.069103 0.089380 0.035757 -0.097862 -0.024844 0.059517 -0.183907 -0.109879 -0.000973 0.116804 -0.012574 -0.100312 0.101942 0.167628 -0.055030 -0.077979 0.151008 -0.123430 -0.084759 0.084838 -0.113380 0.014590 -0.177117 -0.005476 -0.045169 0.152662 0.103117 0.005929 0.097648 -0.149457 0.046600 -0.014564 0.030463 0.054597 -0.119734 0.163430 0.045702 0.071292 0.016561 -0.084751 0.007858 0.029789 0.100850 -0.030446 -0.001661 0.109242 0.101467 -0.130570 0.084584 0.094638 -0.135751 0.132809 0.071536 0.013581 0.112990 0.145050 -0.068554 -0.078861 -0.002711 0.276650 -0.088134 0.096735 0.076269 -0.183133 -0.071745 0.043044 0.048714 -0.052159 0.071561 -0.004191 -0.098847 0.015464 0.210429 0.189126 0.042452 -0.034247 -0.044914 0.043272 -0.115585 0.158517 -0.009845 0.079998 0.094646 0.030908 -0.114804 0.120912 0.002119 -0.128763 0.072859 0.043904 0.151215 0.212740 -0.184867 -0.220706 -0.020184 -0.007463 -0.168053 0.050489 -0.000583 -0.029947 -0.002463 -0.096280 0.033707 -0.053041 0.159038 -0.196041 0.058480 0.116077 -0.070516 -0.007043 -0.069210 0.023541 0.063753 -0.127847 0.009885 0.040341 0.010181 -0.150943 -0.181826 0.011327 -0.069552 -0.049784 0.055754 -0.148232 -0.054151 -0.175029 0.059388 -0.111688 0.041955 0.048426 -0.025533 0.058048 0.001808 -0.091152 0.048330 -0.030654 0.078940 -0.152967 -0.052339 0.147582 -0.017760 0.040824 -0.005506 0.063896 0.034910 -0.005117 0.123311 -0.061789 0.055643 -0.209974 0.161991 0.028930 -0.006607 0.070069 -0.123572 0.053071 -0.157320 -0.023602 0.058281 0.015047 0.032810 0.190151 0.243360 0.154228 0.030446 0.065263 -0.029989 -0.002256 -0.039991 -0.073448 -0.009547 -0.069868 0.002557 0.146831 -0.060118 0.010098 -0.104273 0.059952 0.158871 0.073417 0.253298 -0.038878 -0.045146 -0.126432 0.109254 0.088888 -0.066097 0.081733 -0.009661 0.209992 -0.064673 -0.214343 -0.009587 -0.004425 -0.022794 -0.128735 0.264261 0.023887 -0.133630 -0.077506 0.036566 0.010318 0.071354 -0.119989 0.069429 -0.080537 0.013907 -0.135062 -0.220449 0.184144 0.041373 0.023389 0.085042 0.099865 -0.181039 0.062998 0.008865 -0.098024 -0.036679 -0.130725 -0.105788 0.006678 -0.087502 -0.073788 -0.049952 -0.024676 -0.011108 -0.121520 -0.054184 0.169629 0.052541 0.002146 0.149206 -0.070267 0.055209 -0.173517 0.016692 0.042725 0.150491 0.005973 -0.012723 0.166559 -0.018088 -0.042579 
sel -0.214483 -0.178674 0.083755 -0.145788 -0.061350 -0.102165 0.091374 -0.155040 -0.285566 -0.015192 0.070341 0.138809 -0.087699 -0.118973 -0.116793 0.021646 0.156626 0.060271 0.040325 -0.105289 0.059814 -0.041040 -0.024537 -0.074585 0.173822 -0.031655 0.287395 0.016408 0.016762 -0.007819 -0.031281 -0.004454 -0.058390 -0.178114 0.071753 -0.150657 -0.077905 0.050777 0.103112 -0.136406 -0.030880 0.028247 0.036115 -0.040044 -0.020963 -0.065349 0.003821 0.166136 -0.135003 -0.112955 -0.073048 0.173897 -0.067148 0.039236 0.041077 -0.018003 -0.132947 0.079181 0.118156 -0.044256 -0.086221 0.188240 -0.207116 -0.169085 -0.031336 0.111936 0.000142 0.023237 0.157142 0.165433 -0.051162 -0.063997 -0.098324 -0.126949 -0.129183 0.254261 0.061875 0.029477 -0.138634 -0.048073 0.055620 0.263545 0.000773 0.049719 -0.040279 -0.200833 -0.004465 -0.142452 0.167884 0.067862 -0.205502 0.034684 0.169989 -0.039104 -0.011788 -0.145448 -0.086982 0.058907 0.086728 0.022407 0.046023 0.016767 -0.096269 -0.084252 0.016533 -0.007292 -0.079712 0.233369 -0.043000 0.205827 0.142857 0.020627 -0.093819 -0.064796 -0.003817 -0.125528 -0.272739 0.064468 0.163498 -0.021285 -0.042214 -0.049221 0.142803 -0.243489 -0.084067 -0.024484 -0.195369 0.008812 0.043632 0.044068 0.083790 0.100764 -0.037635 0.160873 0.079544 0.170119 -0.229573 0.050236 0.083527 0.135591 -0.176271 0.188561 0.042592 -0.071792 -0.106763 -0.075217 -0.042957 0.097991 -0.134582 -0.289797 -0.062041 -0.086414 0.029410 -0.093852 0.038007 -0.164586 -0.035506 0.058713 0.144820 -0.137481 0.134560 -0.190648 0.004881 -0.013473 0.083312 0.110614 0.019692 -0.053391 -0.041865 -0.204137 -0.047608 0.090638 0.133778 -0.071796 -0.168856 0.252122 0.092867 -0.029801 0.043870 0.053173 -0.007861 -0.172933 -0.066024 -0.007088 0.042057 0.046819 0.182842 0.061033 0.085347 0.040150 -0.006270 -0.071140 0.123878 -0.219724 -0.155629 0.073606 -0.172807 0.063743 0.040658 0.109796 0.082707 -0.149488 0.047042 0.051395 -0.034598 -0.119536 0.085067 -0.067984 0.099687 0.083634 0.174757 -0.020164 0.055643 -0.086195 0.020806 -0.183167 0.151635 0.301258 0.132240 0.031771 0.214832 0.053321 -0.065779 -0.004939 -0.043907 0.309460 -0.058376 0.116587 -0.036925 0.177592 0.006531 0.032717 0.011363 0.098417 0.013224 -0.040967 0.168971 -0.074979 -0.001547 -0.009259 0.187519 0.043269 -0.094858 0.000233 0.073281 0.054367 -0.056622 -0.040980 -0.198428 -0.129795 -0.099877 0.030191 0.064968 0.023456 -0.237207 -0.088140 0.065092 -0.066668 0.057732 -0.073172 0.100415 -0.040822 -0.152981 -0.126218 -0.000958 0.100053 0.089274 0.081034 0.020897 0.042091 -0.200919 0.066920 0.092235 -0.146660 -0.019547 -0.094444 -0.151013 0.275619 -0.103638 0.005059 -0.047155 0.026060 -0.139362 0.020653 -0.091473 0.115219 0.134244 -0.083010 0.208169 -0.109859 0.091957 0.112792 -0.035210 0.053384 0.017981 -0.040593 -0.031704 0.130990 0.186267 -0.124960 
dalam -0.085397 -0.239990 -0.017049 -0.136582 -0.040798 -0.124986 0.072185 -0.256597 -0.286386 0.045105 0.102608 0.165461 -0.114531 -0.069774 -0.056504 0.043002 0.132059 -0.039840 0.076939 -0.015640 0.024674 -0.016459 0.016869 -0.192839 0.102965 -0.083859 0.167150 0.045742 0.010419 -0.031163 -0.081486 0.002315 -0.097606 -0.115452 0.127440 -0.117847 0.013235 -0.004835 0.124074 -0.101371 -0.025893 0.036208 0.132982 -0.086184 0.001885 0.038115 -0.070351 0.202134 -0.038899 -0.045304 0.024378 0.155291 -0.074591 0.093131 0.052661 0.037341 -0.181110 0.126585 0.136174 -0.026749 -0.032600 0.171816 -0.255367 -0.220939 -0.049772 0.116753 0.013037 -0.025046 0.153671 0.229863 -0.111600 -0.045426 -0.017024 -0.200023 -0.148925 0.262094 -0.032901 0.059982 -0.225028 0.032775 -0.072829 0.251607 0.092653 0.019961 0.006377 -0.187103 0.005626 -0.073366 0.122375 0.067678 -0.192493 0.148987 0.147667 0.094207 0.000484 -0.169951 -0.018550 0.061156 0.154325 -0.027786 0.055359 0.058778 0.046525 -0.090518 0.094016 0.052520 -0.135601 0.210059 -0.030210 0.097095 0.193663 0.126269 -0.093871 -0.072398 -0.011653 0.082663 -0.255583 0.082560 0.183147 -0.141425 -0.130069 0.054050 0.132296 -0.211918 -0.003126 0.034645 -0.193992 0.022244 0.135316 0.147948 0.106577 0.062016 -0.104297 0.149730 -0.057895 0.258907 -0.162884 0.065828 0.027827 0.127888 -0.140510 0.180495 -0.046038 -0.078462 -0.027458 0.029379 0.071191 0.263608 -0.171737 -0.306325 -0.091124 -0.086722 -0.059374 -0.024797 0.009123 -0.182007 -0.027166 0.011784 0.130776 -0.081948 0.146037 -0.225272 -0.005479 0.049177 -0.016735 0.068213 -0.016524 -0.007670 -0.003792 -0.145691 0.000742 0.076578 0.151333 -0.102599 -0.211240 0.126843 0.078221 -0.012856 0.111184 -0.025759 -0.050693 -0.225594 -0.012776 -0.015879 0.053723 0.080661 0.126771 0.090383 0.050841 -0.043767 0.047458 -0.055843 0.182147 -0.219509 -0.114851 0.124967 -0.106409 0.145627 -0.011822 0.092270 0.074135 -0.053569 0.085684 -0.050504 0.016349 -0.243144 0.133710 -0.034671 0.051970 0.136944 0.021597 0.022411 -0.060144 -0.083032 0.076877 -0.140319 0.123690 0.311231 0.297343 0.177514 0.146895 0.064255 -0.099943 -0.051163 -0.113280 0.169235 -0.029890 -0.002727 -0.042597 0.211691 -0.083609 0.058697 0.026890 0.075766 0.113617 0.041921 0.285676 -0.098261 -0.081346 -0.090384 0.225387 0.062148 -0.066527 0.039029 0.062459 0.178522 -0.088501 -0.146620 -0.099088 -0.050547 -0.096730 0.000104 0.165805 0.026210 -0.210740 -0.112572 0.070696 -0.018402 0.125214 -0.178312 0.106805 -0.072555 -0.072519 -0.146807 -0.117863 0.213316 0.116212 0.101960 0.018701 0.102014 -0.201202 0.073389 0.136664 -0.174975 -0.045354 -0.220956 -0.128748 0.213422 -0.112349 -0.145604 -0.057229 -0.044245 -0.077491 -0.060814 -0.008794 0.081136 0.096675 -0.057837 0.230279 -0.045343 0.117074 -0.045654 -0.007540 0.042284 0.148990 -0.039364 -0.074540 0.134022 0.093167 -0.088769 
kotak -0.040262 0.051308 0.303736 -0.023307 -0.226779 -0.113386 0.113198 -0.038754 -0.439752 -0.176062 0.211205 0.386486 -0.331303 -0.321936 -0.390423 -0.120026 0.265504 -0.141155 -0.081159 -0.503600 0.099530 -0.090848 -0.237467 -0.055088 0.483773 -0.111188 0.459043 0.109833 -0.125063 0.026179 0.135313 0.179571 0.054184 -0.270195 0.047822 -0.072172 -0.109702 -0.104201 0.195864 -0.243765 -0.122771 0.077689 -0.016621 -0.146558 -0.144332 -0.222326 -0.050373 0.114463 -0.355660 -0.482855 -0.166585 0.323858 -0.369122 -0.204412 0.376064 0.051441 -0.224564 0.125053 0.076522 -0.248710 -0.198259 0.153012 -0.027126 0.014288 0.272837 0.068033 -0.106601 -0.402912 0.320204 0.135995 0.103258 -0.156656 -0.040454 -0.053003 -0.603446 0.172714 0.113770 0.013874 -0.202314 -0.458439 0.311251 0.092361 0.137855 0.217300 -0.115529 -0.191388 0.021239 -0.003962 0.360043 0.014077 -0.384093 0.222766 0.281744 -0.359657 0.266200 -0.120747 -0.236403 0.169568 0.161888 0.161410 0.287528 0.142702 -0.258550 -0.088332 0.180240 0.048988 -0.163317 0.134982 -0.053144 0.533829 0.402332 0.037297 -0.106229 -0.229005 0.131008 -0.309915 -0.047087 0.108472 -0.122532 -0.071446 0.113409 -0.074048 0.202561 -0.360184 -0.055802 -0.118241 -0.051802 -0.161180 0.380760 -0.038220 -0.085570 0.066593 -0.152876 0.170377 0.158577 0.033494 -0.098610 0.137673 0.331122 -0.152731 -0.526605 0.173395 0.397181 -0.157216 0.085833 0.001851 0.135370 -0.102408 -0.526984 -0.516536 -0.041669 0.133114 0.190116 -0.127603 0.221580 -0.253376 0.096127 -0.177793 0.028943 -0.489956 0.140910 0.096380 -0.177775 0.347501 0.111443 0.070014 -0.215579 -0.224792 -0.128609 -0.213949 0.068982 0.297392 -0.267464 -0.188065 -0.232927 0.603408 -0.183914 -0.430752 0.319312 0.057042 -0.185645 -0.380872 0.148885 -0.078347 -0.038063 -0.137621 0.262385 0.417069 -0.003763 0.460835 -0.294008 -0.223267 0.401049 -0.250486 -0.231752 -0.000595 -0.452453 -0.431612 -0.092828 0.070322 0.272475 -0.435960 0.112352 -0.147349 -0.109506 0.141497 0.337630 -0.061122 -0.096757 0.021311 0.051416 -0.011112 -0.174804 -0.247723 0.000292 0.148603 0.348965 0.738831 0.048378 0.243825 0.375344 -0.192469 -0.035020 0.017135 0.090561 0.477958 -0.066655 -0.095548 -0.247893 0.356074 -0.112637 0.026211 -0.034628 0.423189 -0.167347 0.018759 0.052128 -0.323462 0.068576 -0.223118 0.106476 0.160467 -0.211352 0.123558 -0.122345 0.311021 0.075556 -0.049097 -0.005661 -0.509802 0.148827 0.138530 0.170143 -0.285311 -0.233099 0.340646 0.220638 -0.178917 0.010699 -0.079280 0.082340 0.163219 0.036045 -0.267487 0.199148 -0.246210 0.229779 0.051637 0.137015 0.257541 -0.188832 0.164077 0.051506 0.249200 -0.069202 -0.268682 -0.024644 0.464693 -0.082563 0.419681 -0.050372 0.032977 0.013909 0.419554 -0.205185 0.580571 0.172234 0.280163 0.510980 -0.056617 0.172454 0.105374 0.348274 -0.152673 0.013009 0.164196 -0.223356 0.294752 0.537411 0.012872 
bab 0.216479 -0.567633 0.029978 -0.820722 -0.122819 0.176160 0.071185 -0.301395 -0.312559 0.314231 -0.079010 0.275747 -0.244387 0.161430 -0.130418 0.181894 0.036836 0.121487 -0.129525 -0.225174 -0.593789 -0.156546 0.075225 -0.349240 -0.109993 -0.004399 -0.045787 0.322687 0.323131 0.440944 0.050553 -0.593313 0.199269 -0.088660 -0.152614 -0.584310 0.103643 -0.166249 0.625145 0.101524 0.152940 0.084913 -0.157891 0.153355 -0.060514 -0.211360 0.089977 -0.046228 -0.183877 0.155532 0.463492 0.413771 0.193352 0.264103 -0.420292 0.359435 0.136611 0.094973 -0.048220 -0.268516 -0.270641 -0.003860 -0.571417 -0.110021 -0.548799 0.403980 0.002418 -0.030164 0.268437 0.496400 0.096055 -0.540442 0.406910 -0.292278 0.592496 -0.164500 -0.393262 -0.401625 0.230880 0.107107 0.166724 0.560885 -0.108026 0.126339 0.310090 -0.233813 0.123834 -0.085611 -0.069200 0.012415 0.096744 0.190448 0.052147 0.126328 -0.134169 0.075288 0.154542 0.075153 0.423254 -0.319424 -0.211502 0.221322 -0.014826 -0.472104 -0.207508 0.282529 -0.315992 0.203005 0.164130 0.248428 -0.129706 -0.065723 -0.281658 -0.163418 -0.080918 0.521092 -0.249250 0.063409 0.314164 -0.126624 0.136862 -0.096182 -0.181708 0.128861 0.133921 -0.154870 -0.365902 0.342399 0.406218 0.177221 -0.027507 -0.111285 0.335308 0.171783 -0.081333 -0.197709 -0.135973 0.323462 -0.015165 0.252815 -0.060245 0.340989 0.264448 -0.151491 -0.282446 -0.366190 -0.129589 0.320890 -0.271945 -0.449815 -0.194339 -0.098181 -0.579154 -0.020639 -0.183338 0.255441 0.000769 0.007415 0.206251 0.081847 0.438444 -0.819492 0.629683 -0.097942 0.196878 0.111427 -0.083831 -0.076978 0.384909 -0.610936 -0.435538 -0.258476 0.384574 -0.174307 -0.491282 0.094023 0.048854 -0.086740 -0.422233 -0.288339 0.086658 -0.150903 -0.081031 -0.388683 0.017630 0.032316 -0.218835 -0.760547 0.344491 -0.478860 0.347394 0.182620 -0.683724 -0.668596 -0.101172 0.665078 0.127775 0.046024 0.072637 0.268441 -0.181337 -0.101790 0.344692 0.163402 0.094154 -0.371251 -0.018960 -0.038834 0.312443 -0.272644 -0.166914 -0.082212 0.124078 0.150531 -0.024208 -0.030954 0.064273 0.121267 -0.145593 -0.149867 -0.275786 0.404978 0.117586 0.198817 0.022455 -0.228110 0.220313 0.185611 0.301612 0.375359 0.247401 -0.210453 -0.596677 0.090787 0.758815 0.123349 0.840421 0.175571 0.327209 0.447150 0.324977 0.261452 -0.713618 -0.254264 0.046092 -0.049994 -0.278333 -0.308853 -0.661152 0.289292 -0.085740 -1.020282 0.645931 0.020191 -0.524092 -0.695469 0.149538 -0.008392 -0.322507 0.119307 0.270930 -0.312662 -0.534518 -0.298343 -0.689815 0.464890 -0.515793 -0.060211 -0.095875 -0.289550 -1.013969 0.437720 -0.239468 -0.693453 -0.260768 0.250322 -0.585445 -0.495472 -0.142757 -0.048517 -0.247413 0.381869 -0.500668 -0.533421 -0.324994 0.418611 0.062690 -0.355842 0.014364 -0.471918 -0.199147 -0.078999 -0.566656 0.639121 -0.075834 -0.267179 0.496501 0.753439 -0.197927 -0.219718 
ikon 0.296647 -0.148618 -0.140248 -0.070130 -0.051791 0.021539 0.074989 -0.279715 -0.123297 0.080990 0.091838 0.301437 -0.142621 -0.043966 0.039737 -0.016642 0.082454 -0.155500 -0.029415 -0.036454 -0.153053 -0.061784 0.006181 -0.314849 -0.009690 -0.113871 -0.081059 0.098339 0.120613 -0.042679 -0.191702 0.014035 -0.121644 -0.070085 0.139622 -0.016824 0.081692 -0.186111 0.172759 -0.059805 -0.003211 0.122024 0.129097 -0.058609 -0.057663 0.125242 -0.151796 0.091092 -0.017710 -0.073013 0.103875 0.121104 -0.055029 0.068545 0.086447 0.133647 -0.100665 0.071229 -0.020407 -0.149471 -0.049745 0.008926 -0.154279 -0.120923 -0.019351 0.109847 0.010393 -0.211850 0.100293 0.181736 -0.073090 -0.022661 0.211266 -0.092739 -0.080347 0.011654 -0.184677 0.005463 -0.168753 0.074674 -0.118723 0.083504 0.137561 0.100486 0.114670 -0.050244 0.066716 0.026648 -0.060751 -0.004665 -0.076866 0.187731 -0.005404 0.107443 0.045594 0.005749 0.110593 0.062898 0.138347 -0.036418 0.008913 0.224787 0.212229 -0.073779 0.203438 0.164305 -0.152849 0.014901 0.118508 0.011358 0.137423 0.230178 -0.109230 -0.060165 0.039835 0.390479 0.027314 0.069624 0.036288 -0.236968 -0.141348 0.100313 0.002904 0.010505 0.137096 0.022289 0.007025 0.038427 0.272502 0.232275 0.110211 -0.013865 -0.037714 0.025340 -0.186756 0.084085 0.093422 0.034274 0.132447 -0.040854 -0.051741 0.026273 -0.052291 -0.192402 0.099490 0.174980 0.249520 0.265547 -0.217080 -0.180585 -0.009743 0.106348 -0.201617 0.079935 -0.000583 0.016678 0.047306 -0.173968 0.011894 -0.052885 0.091342 -0.130529 0.014212 0.186600 -0.145824 -0.039684 -0.059017 -0.017684 0.135349 -0.034729 0.112155 0.061049 -0.094493 -0.240373 -0.167559 -0.108122 -0.132405 -0.040110 0.093651 -0.164299 -0.124162 -0.198472 0.143801 -0.104909 0.029140 0.048194 -0.104372 0.084188 -0.050643 -0.140415 0.058917 -0.081401 0.006721 -0.145302 -0.053868 0.126201 0.023175 -0.034511 -0.058686 -0.006954 0.064932 0.077250 0.164624 -0.100586 0.139934 -0.246656 0.185867 0.063008 -0.071226 0.083628 -0.154157 -0.019979 -0.227451 0.028999 0.016407 0.052860 0.029940 0.154651 0.261245 0.190301 -0.034613 0.089998 -0.065868 -0.022012 -0.059584 -0.181549 -0.020498 -0.169088 0.063893 0.178560 -0.071886 0.009924 -0.164492 -0.015136 0.197826 0.127663 0.275752 -0.071060 -0.032371 -0.124537 0.103672 0.078792 -0.061777 0.123500 -0.057326 0.246716 -0.095712 -0.294154 0.076456 0.042334 -0.051686 -0.251087 0.316004 0.006250 -0.070970 -0.096137 -0.001498 0.010911 0.121612 -0.165728 0.013131 -0.113829 0.053599 -0.096526 -0.298959 0.239219 -0.000801 0.029241 0.110057 0.143903 -0.123625 0.082677 -0.082416 -0.101213 -0.025739 -0.188918 -0.094900 -0.037741 -0.108514 -0.085657 -0.077676 -0.122526 0.083360 -0.181928 -0.083698 0.184529 0.029262 0.090633 0.139538 -0.022013 0.146358 -0.255693 0.090886 0.021062 0.180609 0.068019 -0.058114 0.156336 -0.133721 -0.012766 
dokumen 0.018764 -0.125809 0.059328 -0.118666 -0.083233 -0.111345 0.041108 -0.116132 -0.218435 -0.017601 0.048202 0.183506 -0.215263 -0.121178 -0.143792 0.025349 0.147625 -0.088791 0.056425 -0.068729 -0.007639 0.021394 -0.046237 -0.058059 0.156989 -0.068677 0.184869 0.130019 -0.015986 -0.012703 0.093970 0.013425 -0.054401 -0.102517 0.000032 -0.116003 -0.017668 0.060902 0.162211 -0.087616 -0.066230 -0.030998 0.011320 -0.122923 -0.008963 -0.020458 -0.009680 0.067868 -0.035278 -0.086195 0.025077 0.116785 -0.119176 -0.053164 0.141534 0.074230 -0.185182 0.156250 0.007956 -0.020906 -0.122872 0.109525 -0.161708 -0.119564 0.048705 0.047500 -0.066750 -0.081942 0.066082 0.125251 0.023864 -0.103284 -0.072120 -0.091517 -0.232882 0.210212 0.008554 0.023208 -0.114351 -0.102906 0.068876 0.157078 0.193640 0.036820 -0.015887 -0.194480 -0.018965 0.030743 0.207873 0.045314 -0.172075 0.181302 0.127779 0.044967 0.102854 -0.108729 -0.033755 0.035870 0.084240 -0.006217 0.059279 0.011683 -0.033547 -0.135709 0.120765 -0.024977 -0.121230 0.189115 0.032584 0.176912 0.200749 0.084990 -0.005023 -0.136181 -0.064477 -0.090460 -0.139280 0.096454 0.047378 -0.023384 0.008558 -0.030264 0.021168 -0.185712 -0.028308 -0.030373 -0.172407 -0.023644 0.127959 0.071853 -0.008788 0.000985 -0.155405 0.131323 -0.019906 0.184699 -0.085494 0.121511 0.057068 0.011562 -0.195827 0.226154 0.103304 -0.024527 0.012116 0.077468 0.042130 0.078271 -0.259053 -0.301683 -0.145070 0.046178 0.032093 -0.055822 0.043352 -0.121520 0.016615 -0.075996 0.021328 -0.194120 0.130131 -0.148015 -0.025526 0.160401 0.102635 -0.033537 -0.139711 -0.125084 -0.068685 -0.136660 0.090465 0.057832 0.089777 -0.103154 -0.174507 0.205198 0.009852 -0.132500 0.114142 -0.004447 -0.089573 -0.218779 0.093328 0.036381 -0.052717 0.006197 0.041129 0.042039 0.003035 0.116686 -0.026570 -0.064285 0.330586 -0.100284 -0.097092 0.043222 -0.123649 0.020743 0.074102 0.021334 0.127226 -0.183275 0.041410 -0.130667 -0.034981 -0.050082 0.136914 -0.114009 -0.030585 0.082434 0.002485 0.092771 -0.109179 -0.107640 0.181236 -0.022089 0.111309 0.294366 0.207500 0.213647 0.201485 -0.016485 -0.006149 -0.016105 -0.034132 0.175924 -0.038703 -0.079896 -0.104932 0.138016 -0.086229 0.054577 0.022923 0.209011 0.065915 -0.025979 0.184818 -0.170113 -0.146575 -0.068270 0.125485 0.108563 -0.100170 0.087878 -0.061704 0.218204 -0.010077 0.004966 -0.042817 -0.086143 -0.010319 -0.004119 0.137073 -0.088521 -0.215400 0.034977 0.172099 -0.048948 -0.002935 -0.123888 0.119349 -0.023783 -0.078090 -0.164357 -0.087764 0.047658 0.131361 0.096069 0.020966 0.112085 -0.183737 0.035675 0.089401 0.019145 -0.095726 -0.205116 -0.034419 0.235629 -0.144009 0.053124 0.013090 0.084629 -0.011204 0.017887 -0.038810 0.174997 0.033756 0.018590 0.209838 0.019786 0.039169 -0.035286 0.102672 0.058679 0.128388 0.007497 -0.104248 0.111537 0.163823 -0.032993 
teks -0.212562 -0.204842 0.097106 -0.205997 -0.061833 -0.105726 0.129934 -0.231845 -0.358275 -0.043444 0.182003 0.209518 -0.178477 -0.120860 -0.100758 0.045021 0.117498 0.013228 0.025776 -0.207164 0.049748 0.002218 -0.066608 -0.122833 0.252357 -0.043634 0.335951 0.019869 0.013331 -0.007233 -0.062972 -0.011970 -0.035712 -0.177636 0.094620 -0.184167 -0.107646 0.029796 0.125902 -0.140435 -0.015680 0.062760 0.029059 -0.008074 -0.057619 -0.075901 -0.034414 0.195203 -0.182120 -0.132845 -0.046540 0.207888 -0.099223 0.047416 0.035460 0.003856 -0.163580 0.049157 0.122301 -0.050112 -0.088023 0.193114 -0.242472 -0.182155 -0.032733 0.141671 0.010042 -0.037518 0.238509 0.251330 -0.044806 -0.073011 -0.115536 -0.199702 -0.205368 0.294659 0.049824 0.016093 -0.186944 -0.068252 0.053784 0.298579 -0.007770 0.081136 -0.039306 -0.198960 0.042456 -0.137017 0.230822 0.056017 -0.219086 0.096456 0.221141 -0.054270 -0.000223 -0.131852 -0.120621 0.067664 0.187408 -0.010127 0.069114 0.084466 -0.086198 -0.073534 0.101448 0.033324 -0.092040 0.245266 -0.032773 0.241702 0.201973 0.024429 -0.153000 -0.118882 -0.004749 -0.101682 -0.271913 0.093069 0.136082 -0.070152 -0.085010 -0.046774 0.181810 -0.262726 -0.046489 0.013675 -0.200724 0.026945 0.105900 0.063139 0.071951 0.113095 -0.030171 0.195444 0.053264 0.137954 -0.279163 0.045325 0.109465 0.102526 -0.223815 0.196905 0.071509 -0.122652 -0.105632 -0.090256 -0.009548 0.130020 -0.246854 -0.400919 -0.072022 -0.012236 0.047482 -0.041015 0.078860 -0.266093 0.003132 0.044443 0.176122 -0.161453 0.138061 -0.177961 -0.041911 0.011760 0.043604 0.123992 -0.014355 -0.055317 -0.016352 -0.189761 -0.086575 0.164584 0.169892 -0.128209 -0.232744 0.279786 0.103018 -0.111406 0.097378 0.037363 -0.050641 -0.267546 0.020459 -0.062566 0.034503 0.051547 0.214662 0.070186 0.095921 0.052361 -0.044678 -0.125011 0.130866 -0.285171 -0.164794 0.120842 -0.184049 0.015823 0.007564 0.130461 0.113440 -0.137755 0.082205 0.017917 -0.068284 -0.130262 0.148018 -0.038546 0.085844 0.098318 0.096408 -0.030691 0.057236 -0.120143 0.046854 -0.191548 0.193952 0.453580 0.168584 0.048773 0.246622 0.104758 -0.056262 -0.029644 -0.101606 0.376733 -0.040983 0.052590 -0.074209 0.255345 0.020091 0.024793 0.028750 0.135471 0.070826 -0.027550 0.248529 -0.100697 0.062689 -0.011094 0.278579 0.110529 -0.191085 -0.026715 0.084479 0.117277 -0.041395 -0.076705 -0.225937 -0.167022 -0.074434 0.002936 0.127587 0.018344 -0.278426 -0.063470 0.088073 -0.086972 0.014869 -0.109273 0.134301 -0.018802 -0.147973 -0.155774 -0.028683 0.122696 0.082967 0.096770 -0.010825 0.082654 -0.284743 0.091098 0.092336 -0.191241 -0.071427 -0.139963 -0.143705 0.281003 -0.162803 0.017995 -0.114412 0.010615 -0.104524 0.038254 -0.161290 0.217397 0.129837 -0.085684 0.267341 -0.113389 0.093640 0.100338 0.058762 0.036366 0.030658 0.001945 -0.040122 0.165919 0.218237 -0.087949 
membuat -0.078691 -0.213307 0.022926 -0.155969 -0.076800 -0.060313 0.119220 -0.187305 -0.226926 0.007814 0.070079 0.201534 -0.130938 -0.060636 -0.065828 0.054982 0.119528 -0.031705 0.027709 -0.025910 -0.020621 0.030204 -0.021215 -0.130206 0.115899 -0.045868 0.173689 0.048389 0.057409 -0.012210 -0.084989 -0.064235 -0.043673 -0.114762 0.047292 -0.144805 -0.038773 0.051170 0.106136 -0.098449 -0.046540 0.046974 0.024890 -0.053226 -0.005439 0.018502 -0.035221 0.107694 -0.048057 -0.056955 0.040212 0.145339 -0.052897 0.055339 0.048935 0.039744 -0.148594 0.066247 0.074352 0.005774 -0.120063 0.145416 -0.236051 -0.186257 -0.037703 0.077959 0.006676 0.015710 0.098099 0.188359 -0.060122 -0.065054 -0.062425 -0.152702 -0.070676 0.217441 -0.030807 0.030146 -0.105048 -0.005408 -0.060781 0.234476 0.087410 0.021415 -0.029411 -0.175057 0.029913 -0.052875 0.124881 0.051881 -0.131759 0.076566 0.123656 0.078243 -0.012370 -0.120952 -0.002734 0.010605 0.131726 -0.051245 0.000140 0.065493 0.032733 -0.138469 0.083531 -0.002240 -0.098425 0.191330 0.064698 0.122514 0.170052 0.029322 -0.084949 -0.123868 -0.040384 0.027810 -0.190146 0.089601 0.115831 -0.085204 -0.094053 -0.031045 0.067427 -0.119819 -0.016107 0.015679 -0.215272 0.081612 0.062356 0.075693 0.094371 0.032387 -0.052858 0.141172 0.004566 0.151906 -0.172145 0.085967 0.043688 0.089407 -0.125401 0.154107 0.032559 -0.057322 -0.065586 -0.001553 0.022273 0.178831 -0.193676 -0.318886 -0.076463 0.005970 -0.000509 -0.008983 0.005267 -0.122318 -0.006866 0.024496 0.129442 -0.094741 0.116364 -0.215218 -0.007923 0.009975 0.018745 -0.002958 -0.022436 -0.086385 0.009394 -0.093396 -0.016065 0.035056 0.193622 -0.117962 -0.183075 0.143846 0.063637 -0.045757 0.025386 -0.030376 -0.033144 -0.198059 0.049747 -0.034903 0.022433 0.050823 0.044002 -0.013259 0.060821 -0.027936 0.078074 -0.085078 0.155975 -0.185096 -0.114682 0.101648 -0.062595 0.102632 0.063639 0.042703 0.058635 -0.089815 0.064172 -0.030883 0.004039 -0.143174 0.120494 -0.075729 0.050105 0.114717 0.047123 0.025221 -0.003543 -0.062833 0.116430 -0.103621 0.089961 0.233095 0.191865 0.080939 0.170095 0.131309 -0.037060 -0.017823 -0.077738 0.179186 -0.037186 -0.009767 -0.049658 0.162227 0.000703 -0.011366 0.012901 0.098702 0.156632 -0.046195 0.239648 -0.110037 -0.029712 0.004555 0.254246 0.106004 -0.128648 -0.007301 0.039772 0.180692 -0.060579 -0.054746 -0.127053 -0.043970 -0.113737 -0.067678 0.140872 0.046269 -0.222331 -0.109933 0.125232 -0.045960 0.000630 -0.145787 0.096944 -0.072377 -0.111886 -0.147831 -0.166093 0.187452 0.055898 0.080433 -0.015778 0.117334 -0.212955 0.058057 0.050934 -0.168277 -0.092108 -0.151560 -0.086224 0.140561 -0.179357 -0.095872 -0.082268 0.041868 -0.060135 -0.096695 -0.091642 0.139374 0.071012 -0.066190 0.163580 -0.063902 0.076106 0.024554 0.012896 0.062903 0.097304 -0.032760 -0.032542 0.088072 0.063100 -0.034949 
lunak 0.269225 -0.604266 -0.225906 -0.759192 -0.070608 0.350961 0.150333 -0.478231 -0.295059 0.219825 0.157412 0.349333 -0.200838 0.234433 0.316413 0.356565 -0.067953 -0.005358 -0.072887 -0.191474 -0.693853 0.183917 -0.044506 -0.515859 -0.141383 -0.076072 -0.300759 0.196288 0.410538 0.278027 -0.377708 -0.612369 0.174822 -0.085071 0.086182 -0.457121 0.092940 -0.276415 0.637160 0.180201 0.365878 0.094012 -0.107261 0.441434 -0.086406 -0.038199 -0.078481 -0.048450 -0.161753 0.238560 0.535988 0.372836 0.243245 0.296340 -0.457554 0.317587 0.153608 -0.145098 -0.261996 -0.271098 -0.015335 -0.129452 -0.543093 -0.165976 -0.506073 0.469027 -0.006981 0.135719 0.238362 0.570164 -0.106490 -0.202468 0.368554 -0.322302 0.580987 -0.153990 -0.405263 -0.257603 0.075864 0.139828 -0.172324 0.647426 -0.204079 -0.024678 0.460582 -0.231663 0.418182 -0.107819 -0.267455 -0.031174 0.183406 0.127924 -0.075972 0.306083 -0.146502 0.082558 0.160180 -0.114976 0.476472 -0.379043 -0.374641 0.310856 0.346467 -0.314170 0.116569 0.333841 -0.322998 0.108972 0.406763 -0.128043 -0.247122 0.014608 -0.366539 -0.200824 -0.080090 0.972619 -0.059078 0.196298 0.288429 -0.294001 -0.244315 0.002615 -0.156628 0.284752 0.312359 0.022661 -0.295425 0.370703 0.272860 0.347380 0.084364 -0.022107 0.379434 0.153716 -0.244828 -0.264748 -0.246017 0.216885 0.043381 0.133396 -0.008510 0.022054 0.074072 -0.425001 -0.132061 -0.303862 0.084796 0.337335 -0.193177 -0.346617 0.059190 0.110323 -0.592997 0.348585 -0.172454 0.065334 0.152808 -0.041113 0.333703 0.265974 0.312299 -0.719406 0.515932 -0.071200 -0.145097 0.103088 -0.080932 0.213993 0.551265 -0.252318 -0.488935 -0.199670 0.546313 -0.367579 -0.486793 -0.389744 0.058323 0.023194 -0.262941 -0.459719 -0.011822 -0.301879 0.163202 -0.577623 0.111577 0.268577 -0.543687 -0.789118 0.163840 -0.627588 0.399310 -0.050459 -0.761875 -0.573385 0.094743 0.630832 0.368154 0.125212 0.081170 0.274319 -0.220541 0.324266 0.471526 0.144006 0.065521 -0.533194 0.212941 0.221875 0.172386 -0.105955 -0.375559 -0.088964 0.088252 0.205923 0.042950 0.024544 -0.319111 0.091132 0.048548 -0.204429 -0.290875 0.630616 0.222368 0.073020 -0.177445 -0.378083 0.198792 -0.056385 0.278309 0.319602 0.345766 -0.249722 -0.539753 0.012526 0.993067 0.132602 0.890469 0.258370 0.326836 0.293217 0.564789 0.324661 -0.671783 -0.190005 0.186068 0.148244 -0.292554 -0.556563 -0.433835 0.584996 -0.154253 -1.063913 0.741201 0.253822 -0.320916 -0.580546 -0.110693 0.064968 -0.414225 0.053581 0.188332 -0.362905 -0.208523 -0.246018 -1.046573 0.616287 -0.611274 -0.106915 -0.081890 -0.129599 -0.905666 0.205244 -0.443194 -0.864546 -0.303062 0.149966 -0.459138 -0.756464 -0.292659 -0.196861 -0.405493 0.139376 -0.235376 -0.741874 -0.337503 0.470085 0.041138 -0.412543 -0.074982 -0.354794 -0.267176 -0.141044 -0.289826 0.455192 0.125415 -0.120488 0.685082 0.581971 -0.548176 -0.076622 
ini 0.019400 -0.191258 0.018431 -0.215368 -0.075898 -0.056389 0.030071 -0.222143 -0.231077 0.039532 0.095199 0.145943 -0.137274 -0.000562 -0.028180 0.031175 0.066232 -0.060507 -0.015327 -0.131042 -0.072770 -0.055971 0.000192 -0.149244 0.048447 -0.067657 0.129593 0.107808 0.022016 0.081061 0.007934 -0.052947 -0.035165 -0.045946 0.048029 -0.187727 0.025855 -0.055114 0.176034 -0.007620 0.015536 0.012451 0.033457 -0.018444 -0.045395 -0.069956 -0.024203 0.083326 -0.083193 0.014374 0.092145 0.139038 -0.055427 0.063760 -0.007589 0.090664 -0.102175 0.112663 0.045273 -0.130663 -0.071254 0.076629 -0.218468 -0.134690 -0.099372 0.142162 -0.000708 -0.088633 0.147707 0.224207 -0.002871 -0.147426 0.072846 -0.178429 -0.053748 0.143846 -0.064690 -0.067960 -0.113524 0.057390 0.044289 0.220304 0.026355 0.059699 0.076102 -0.149962 0.049483 -0.015222 0.075665 0.020563 -0.117749 0.168552 0.105957 0.088046 0.042675 -0.051167 0.009201 0.058758 0.165757 -0.044930 0.024047 0.070874 -0.032477 -0.133768 0.058851 0.084400 -0.108581 0.171996 -0.006391 0.100899 0.110520 0.108231 -0.112985 -0.045130 -0.020157 0.126889 -0.122672 0.048568 0.142001 -0.080264 -0.025799 -0.014122 0.057384 -0.105198 0.021066 -0.002064 -0.134444 0.048164 0.199373 0.120503 0.007643 0.027530 -0.034029 0.141219 -0.083492 0.110909 -0.087430 0.121731 0.020720 0.065866 -0.101995 0.193919 0.047225 -0.061105 -0.049230 -0.015733 0.037125 0.178187 -0.181089 -0.246832 -0.087457 -0.018962 -0.126736 -0.016390 -0.009945 -0.098028 0.016768 -0.034100 0.063195 -0.067825 0.187673 -0.241751 0.063071 0.078770 0.039740 0.050651 -0.083643 -0.012094 0.044230 -0.175571 -0.084995 0.042126 0.133791 -0.086986 -0.253439 0.103877 0.045160 -0.071015 0.054299 -0.058460 -0.025981 -0.211189 0.028090 -0.058978 -0.005071 0.022536 0.033450 -0.069103 0.054479 -0.030621 0.017402 -0.008878 0.030894 -0.223481 -0.076270 0.173781 -0.061219 0.056930 -0.009652 0.086051 0.040304 -0.039576 0.157796 -0.073062 0.023661 -0.196997 0.125103 -0.005533 0.029259 -0.034860 -0.072040 0.021382 -0.055881 -0.023678 0.060250 -0.072149 0.095201 0.277733 0.191069 0.145293 0.044025 0.068228 -0.022532 -0.029783 -0.056003 0.048821 0.022326 -0.002760 0.020225 0.189826 0.000476 0.034036 -0.085970 0.062601 0.187975 0.064117 0.337821 -0.068248 -0.004536 -0.036968 0.157832 0.071408 -0.171915 -0.002622 0.004390 0.109917 -0.075213 -0.149203 -0.148478 0.006277 -0.025535 -0.186864 0.199353 -0.032713 -0.228771 -0.137287 0.032154 -0.025598 0.022982 -0.095624 0.105026 -0.058753 -0.103843 -0.164113 -0.154670 0.143351 -0.027000 0.064458 -0.013708 -0.004871 -0.289234 0.127376 0.051320 -0.156853 -0.110195 -0.134107 -0.165810 0.087793 -0.074877 -0.018160 -0.063482 0.054303 -0.100325 -0.071343 -0.071711 0.182326 0.062426 -0.064423 0.132515 -0.080815 0.020746 -0.053394 -0.036033 0.139312 0.073888 -0.026023 -0.003446 0.260955 0.030588 -0.069612 
perangkat 0.254952 -0.623153 -0.176022 -0.803309 -0.086007 0.323760 0.146719 -0.449940 -0.293108 0.254215 0.123509 0.325083 -0.201026 0.254876 0.280909 0.320279 -0.059744 0.008661 -0.071127 -0.198717 -0.690849 0.146601 -0.029320 -0.496949 -0.171745 -0.059567 -0.288095 0.192841 0.421836 0.311514 -0.333891 -0.620808 0.165248 -0.078885 0.029447 -0.479667 0.073704 -0.240976 0.625490 0.205038 0.334743 0.052057 -0.147705 0.412403 -0.056499 -0.053835 -0.052376 -0.074442 -0.159750 0.256861 0.545676 0.358245 0.258346 0.295503 -0.472170 0.340054 0.155109 -0.109382 -0.220185 -0.273297 -0.032935 -0.104053 -0.575301 -0.173307 -0.553360 0.469931 -0.014618 0.164636 0.234090 0.568058 -0.085233 -0.260159 0.362121 -0.354552 0.622127 -0.152062 -0.414033 -0.295559 0.113475 0.147530 -0.140338 0.654814 -0.208385 -0.009542 0.449107 -0.257863 0.394680 -0.102974 -0.270704 -0.024179 0.194167 0.129380 -0.044358 0.312509 -0.156077 0.077431 0.160963 -0.112704 0.472296 -0.385782 -0.370983 0.285390 0.316585 -0.372377 0.065403 0.315388 -0.307777 0.128627 0.387427 -0.092314 -0.227878 0.007284 -0.362959 -0.185480 -0.107509 0.941007 -0.074659 0.188069 0.316793 -0.270977 -0.197765 -0.018462 -0.162985 0.301490 0.293763 0.007523 -0.324066 0.402164 0.285089 0.320855 0.104896 -0.040533 0.370232 0.191410 -0.224124 -0.257901 -0.216286 0.234899 0.011217 0.144985 -0.001020 0.081030 0.086003 -0.356432 -0.171905 -0.319520 0.056343 0.349630 -0.199429 -0.343936 0.031612 0.076264 -0.596778 0.320064 -0.193623 0.102031 0.143260 -0.020731 0.320104 0.286178 0.324548 -0.779998 0.545316 -0.075525 -0.101381 0.088750 -0.082205 0.185286 0.531933 -0.289049 -0.516131 -0.244802 0.562205 -0.348973 -0.486230 -0.351585 0.047261 0.040727 -0.289733 -0.431082 0.012582 -0.281897 0.132737 -0.541106 0.107949 0.239333 -0.505599 -0.829526 0.176032 -0.616758 0.425232 -0.032373 -0.756382 -0.572169 0.083964 0.664195 0.358319 0.158613 0.094851 0.275332 -0.227048 0.300775 0.449401 0.141292 0.068111 -0.512594 0.192940 0.203224 0.214232 -0.144491 -0.347275 -0.083046 0.104103 0.220659 0.061120 -0.004656 -0.284004 0.079877 0.018625 -0.186020 -0.303723 0.626460 0.225550 0.046114 -0.162131 -0.388944 0.218195 -0.015615 0.297976 0.314328 0.346219 -0.248526 -0.536395 -0.019400 1.005554 0.123450 0.904567 0.239869 0.297786 0.310280 0.558974 0.322319 -0.695678 -0.202507 0.179373 0.126333 -0.298033 -0.537921 -0.487245 0.591828 -0.186168 -1.070815 0.723185 0.255919 -0.363858 -0.645574 -0.086614 0.053790 -0.405352 0.076248 0.202553 -0.377343 -0.284198 -0.265322 -1.026210 0.616009 -0.617260 -0.109478 -0.097757 -0.196859 -0.936646 0.228142 -0.412422 -0.858044 -0.313407 0.146530 -0.501864 -0.751193 -0.272153 -0.186495 -0.372586 0.198542 -0.272678 -0.753371 -0.337158 0.456542 0.041393 -0.414346 -0.103933 -0.354949 -0.280396 -0.138662 -0.357639 0.518891 0.114284 -0.133663 0.676881 0.620654 -0.534725 -0.117887 
pengolah 0.242631 -0.500545 -0.172386 -0.628115 -0.076149 0.281654 0.142037 -0.415499 -0.308226 0.167998 0.156502 0.329310 -0.216228 0.153439 0.289632 0.325862 0.005580 -0.021185 -0.029199 -0.206033 -0.582760 0.184345 -0.058092 -0.477537 -0.094046 -0.097225 -0.229158 0.159961 0.346834 0.239998 -0.297578 -0.462507 0.116692 -0.106831 0.045218 -0.415818 0.059213 -0.253744 0.584608 0.138677 0.333441 0.037273 -0.089669 0.362868 -0.060524 -0.022427 -0.052660 -0.053300 -0.140000 0.180651 0.456922 0.310861 0.182565 0.231675 -0.353581 0.259331 0.116159 -0.094348 -0.207371 -0.232282 0.015204 -0.099817 -0.474941 -0.137988 -0.417039 0.418754 -0.051563 0.100366 0.208895 0.494472 -0.073997 -0.195739 0.343585 -0.310084 0.435547 -0.087840 -0.330980 -0.198475 0.008184 0.088830 -0.085148 0.542239 -0.144404 -0.039647 0.392153 -0.257206 0.382400 -0.090758 -0.171854 -0.000239 0.129669 0.132976 -0.028395 0.247547 -0.103815 0.041011 0.089269 -0.124531 0.395999 -0.314603 -0.319741 0.251795 0.295701 -0.294088 0.102972 0.264644 -0.306027 0.137873 0.344867 -0.120602 -0.177294 0.029113 -0.290155 -0.186764 -0.079222 0.868647 -0.061219 0.211630 0.235339 -0.271089 -0.185505 0.000413 -0.110408 0.228433 0.290690 0.013033 -0.271620 0.267857 0.253649 0.326607 0.079402 -0.024911 0.288164 0.143947 -0.219713 -0.186602 -0.200193 0.211724 0.057507 0.089683 -0.056816 0.092594 0.080319 -0.351366 -0.077231 -0.260460 0.090387 0.306577 -0.213197 -0.332094 0.037374 0.070052 -0.490966 0.329645 -0.150503 0.051327 0.124414 -0.070313 0.272831 0.190545 0.314549 -0.642287 0.443142 -0.009412 -0.123999 0.044738 -0.116899 0.174603 0.455113 -0.278715 -0.399041 -0.158903 0.472414 -0.351350 -0.447793 -0.320156 0.032966 0.003527 -0.193561 -0.418380 -0.028358 -0.297888 0.167830 -0.516692 0.096692 0.221502 -0.423850 -0.638873 0.096691 -0.489401 0.335304 -0.060461 -0.562094 -0.481326 0.070919 0.556548 0.294033 0.133610 0.085408 0.285098 -0.186595 0.274678 0.390269 0.108259 0.006009 -0.468198 0.235875 0.202407 0.129825 -0.059937 -0.345569 -0.029532 0.032627 0.143917 0.080999 0.017176 -0.274574 0.155177 0.090699 -0.132383 -0.210437 0.535022 0.219197 0.044405 -0.180050 -0.314419 0.162887 -0.053895 0.187478 0.277316 0.287064 -0.212603 -0.450046 0.050459 0.838416 0.117954 0.769833 0.222574 0.250101 0.178711 0.458295 0.296697 -0.562295 -0.115968 0.148348 0.171018 -0.228952 -0.489220 -0.349821 0.457361 -0.101231 -0.877195 0.653847 0.226294 -0.293891 -0.465945 -0.089604 0.068451 -0.331073 0.038384 0.212439 -0.305314 -0.184588 -0.231035 -0.899362 0.515676 -0.458706 -0.101752 -0.030898 -0.108803 -0.775229 0.165577 -0.363253 -0.704098 -0.252967 0.099621 -0.383125 -0.601701 -0.259874 -0.145540 -0.330352 0.140597 -0.183721 -0.605317 -0.310577 0.445710 0.038528 -0.341950 -0.040432 -0.289311 -0.243444 -0.164096 -0.222118 0.379293 0.157140 -0.081066 0.571731 0.540778 -0.444330 -0.118222 
dialog 0.076828 0.151363 0.399398 0.067611 -0.291023 -0.117120 0.049964 0.102732 -0.276364 -0.151769 0.051148 0.292304 -0.319358 -0.269991 -0.397985 -0.194233 0.270185 -0.129003 -0.090513 -0.438676 0.061012 -0.114347 -0.190688 0.063749 0.323430 -0.015963 0.375144 0.177242 -0.167372 0.060239 0.228076 0.189945 0.020676 -0.181686 -0.125153 -0.109750 -0.067606 -0.072990 0.160519 -0.140634 -0.118319 -0.050661 -0.151160 -0.176802 -0.098870 -0.310722 0.020839 0.018834 -0.293427 -0.397881 -0.059811 0.146494 -0.245792 -0.205941 0.355885 0.027582 -0.158038 0.182338 0.017772 -0.210441 -0.286886 0.137930 -0.029861 0.070155 0.276189 0.005323 -0.151979 -0.335879 0.127149 0.001809 0.182301 -0.238680 0.038756 0.009169 -0.514966 0.053086 0.135558 -0.097318 -0.067031 -0.363921 0.450759 -0.015369 0.090416 0.209911 -0.089742 -0.141473 -0.005704 0.135370 0.370977 0.054531 -0.344458 0.230364 0.243860 -0.320619 0.294651 -0.010330 -0.222727 0.160485 -0.019396 0.159615 0.228107 0.046624 -0.374375 -0.207302 0.034670 -0.011123 -0.103895 0.188056 -0.021038 0.519428 0.339082 0.055470 -0.036572 -0.134772 0.059165 -0.344190 0.064986 0.062052 -0.159400 0.057584 0.307370 -0.122090 0.079416 -0.304284 -0.081592 -0.129982 0.010353 -0.178082 0.323107 -0.060564 -0.112745 0.015077 -0.178818 0.128443 0.118822 -0.026980 0.079190 0.163512 0.237384 -0.216696 -0.409223 0.331661 0.451026 -0.003769 0.116271 0.048974 0.045337 -0.170169 -0.495138 -0.359731 -0.086719 0.077573 0.199236 -0.193434 0.210961 -0.062110 0.078470 -0.246519 -0.127469 -0.492736 0.195223 0.082235 -0.099417 0.433387 0.186789 -0.013764 -0.289775 -0.251300 -0.162351 -0.254585 0.115633 0.234446 -0.270318 -0.093866 -0.190765 0.592859 -0.203383 -0.424185 0.162406 0.030739 -0.148911 -0.282991 0.109231 -0.006744 -0.131881 -0.235105 0.172754 0.324535 -0.081691 0.538485 -0.214465 -0.124616 0.439444 -0.125191 -0.186122 -0.074100 -0.336804 -0.390692 -0.027846 -0.012495 0.213092 -0.502367 0.097748 -0.190681 -0.041032 0.301204 0.277451 -0.121878 -0.143704 -0.124090 0.048052 0.075315 -0.201222 -0.193741 0.087133 0.226885 0.335021 0.571373 -0.042551 0.225527 0.280462 -0.210161 0.013214 -0.012916 0.116901 0.333562 -0.062342 -0.046737 -0.221977 0.196012 -0.068344 0.029191 -0.060242 0.417125 -0.169105 -0.001948 -0.021782 -0.297496 0.014183 -0.176682 -0.044006 0.131878 -0.192505 0.156606 -0.212057 0.258551 0.152741 0.105827 -0.018317 -0.479395 0.216830 0.093999 0.077503 -0.342669 -0.237794 0.288895 0.257660 -0.106618 -0.000735 0.031324 0.042936 0.233640 -0.028182 -0.258911 0.268755 -0.367829 0.258551 0.038538 0.128258 0.172838 -0.205625 0.148150 0.067777 0.428127 -0.043997 -0.176203 0.024688 0.449343 -0.031341 0.501643 0.050484 0.178341 0.027035 0.459008 -0.189028 0.564425 0.079342 0.253906 0.378786 -0.030560 0.066807 0.022870 0.282183 -0.011604 -0.003097 0.180452 -0.233458 0.278120 0.453046 -0.069363 
digunakan 0.010825 -0.170815 0.035535 -0.116102 -0.048900 -0.071608 0.055487 -0.152296 -0.209000 0.043077 0.078535 0.183493 -0.154128 -0.083135 -0.091173 0.023555 0.080237 0.008674 0.024046 -0.093159 -0.037917 -0.029072 -0.031725 -0.158767 0.110572 -0.028890 0.156559 0.084193 0.023241 -0.031812 -0.034010 -0.016080 -0.035353 -0.103379 0.065708 -0.130783 0.021064 -0.033000 0.154786 -0.079213 -0.016201 0.024713 0.046183 -0.046659 -0.023835 -0.037195 -0.036369 0.123658 -0.077468 -0.081551 0.008271 0.118316 -0.021141 0.052011 0.027662 0.030532 -0.122104 0.094824 0.057925 -0.039425 -0.100733 0.135647 -0.196288 -0.116019 -0.030335 0.087503 -0.014486 -0.092350 0.152935 0.182431 -0.037108 -0.082902 0.028416 -0.154550 -0.110862 0.116751 -0.007374 -0.012690 -0.133847 -0.032815 0.007144 0.199561 0.056647 0.069098 0.020202 -0.114025 -0.030112 -0.045310 0.107699 0.035482 -0.157319 0.123881 0.120567 -0.024479 0.020318 -0.083461 -0.052671 0.078018 0.105488 -0.036289 0.015560 0.072780 -0.031954 -0.084407 0.073523 0.093240 -0.121108 0.152299 -0.008706 0.159063 0.147602 0.082003 -0.085652 -0.042970 0.009363 0.018759 -0.159523 0.058498 0.090115 -0.088587 -0.022926 0.025464 0.092431 -0.190769 0.015719 -0.000056 -0.098547 -0.009993 0.137763 0.109447 0.040233 -0.000744 -0.037495 0.112669 -0.038096 0.109130 -0.105990 0.029248 0.053890 0.060296 -0.194712 0.172270 0.037317 -0.092724 -0.023274 -0.021049 0.052057 0.142956 -0.201777 -0.292553 -0.078288 -0.028158 -0.038686 -0.032830 0.042873 -0.067453 -0.012901 -0.050313 0.102028 -0.094579 0.137312 -0.162955 0.026770 0.083565 0.039616 0.063430 -0.037138 -0.041143 0.011529 -0.177562 -0.008823 0.082039 0.077204 -0.081122 -0.162798 0.160717 -0.001170 -0.083750 -0.009905 -0.027050 -0.078814 -0.149838 0.012228 -0.049663 0.015859 0.031359 0.101754 0.053055 0.058064 0.021636 -0.001942 -0.051631 0.079685 -0.163711 -0.112838 0.073718 -0.065957 -0.014094 -0.017359 0.077725 0.058687 -0.122046 0.060006 -0.004817 0.007202 -0.087911 0.094191 -0.022789 0.043715 0.085068 0.025807 -0.022307 -0.078055 -0.059369 0.010822 -0.037038 0.170455 0.277854 0.109234 0.088062 0.105516 0.028593 -0.066193 -0.011313 -0.077022 0.151435 -0.026373 -0.011750 -0.014507 0.186705 -0.043066 0.059751 -0.053013 0.123573 0.074888 0.068624 0.197506 -0.038662 0.009022 -0.010914 0.119805 0.086277 -0.142317 0.011114 0.007420 0.098423 -0.021740 -0.065036 -0.132380 -0.112490 -0.026796 -0.041145 0.180878 -0.022043 -0.173897 -0.065516 0.081591 0.001559 0.074997 -0.057431 0.067146 -0.030053 -0.091184 -0.144200 -0.075647 0.090243 0.042292 0.053079 0.006485 0.079078 -0.255179 0.102865 0.054301 -0.119427 -0.040298 -0.086087 -0.135664 0.122490 -0.068086 0.004193 -0.059647 0.007629 -0.071954 0.011123 -0.083750 0.138110 0.069884 -0.030861 0.185969 -0.070212 0.048655 -0.074096 -0.015739 0.054649 0.056107 0.012833 -0.033001 0.151933 0.115554 -0.069744 
